digraph Tree {
node [shape=box, style="filled, rounded", color="black", fontname="helvetica"] ;
edge [fontname="helvetica"] ;
0 [label=<Feature 2 &le; 134.5<br/>gini = 0.5<br/>samples = 4751<br/>value = [2438, 2313]<br/>class = Clase 0>, fillcolor="#fef9f5"] ;
1 [label=<Feature 2 &le; 124.5<br/>gini = 0.139<br/>samples = 1119<br/>value = [84, 1035]<br/>class = Clase 1>, fillcolor="#49a5e7"] ;
0 -> 1 [labeldistance=2.5, labelangle=45, headlabel="True"] ;
2 [label=<Feature 2 &le; 29.5<br/>gini = 0.113<br/>samples = 1045<br/>value = [63, 982]<br/>class = Clase 1>, fillcolor="#46a3e7"] ;
1 -> 2 ;
3 [label=<gini = 0.0<br/>samples = 356<br/>value = [0, 356]<br/>class = Clase 1>, fillcolor="#399de5"] ;
2 -> 3 ;
4 [label=<Feature 1 &le; -21.5<br/>gini = 0.166<br/>samples = 689<br/>value = [63.0, 626.0]<br/>class = Clase 1>, fillcolor="#4da7e8"] ;
2 -> 4 ;
5 [label=<Feature 2 &le; 49.0<br/>gini = 0.272<br/>samples = 203<br/>value = [33, 170]<br/>class = Clase 1>, fillcolor="#5fb0ea"] ;
4 -> 5 ;
6 [label=<Feature 1 &le; -29.5<br/>gini = 0.169<br/>samples = 43<br/>value = [4, 39]<br/>class = Clase 1>, fillcolor="#4da7e8"] ;
5 -> 6 ;
7 [label=<gini = 0.444<br/>samples = 6<br/>value = [2, 4]<br/>class = Clase 1>, fillcolor="#9ccef2"] ;
6 -> 7 ;
8 [label=<Feature 2 &le; 34.5<br/>gini = 0.102<br/>samples = 37<br/>value = [2, 35]<br/>class = Clase 1>, fillcolor="#44a3e6"] ;
6 -> 8 ;
9 [label=<Feature 1 &le; -26.0<br/>gini = 0.278<br/>samples = 12<br/>value = [2, 10]<br/>class = Clase 1>, fillcolor="#61b1ea"] ;
8 -> 9 ;
10 [label=<gini = 0.0<br/>samples = 3<br/>value = [0, 3]<br/>class = Clase 1>, fillcolor="#399de5"] ;
9 -> 10 ;
11 [label=<gini = 0.346<br/>samples = 9<br/>value = [2, 7]<br/>class = Clase 1>, fillcolor="#72b9ec"] ;
9 -> 11 ;
12 [label=<gini = 0.0<br/>samples = 25<br/>value = [0, 25]<br/>class = Clase 1>, fillcolor="#399de5"] ;
8 -> 12 ;
13 [label=<Feature 1 &le; -26.5<br/>gini = 0.297<br/>samples = 160<br/>value = [29, 131]<br/>class = Clase 1>, fillcolor="#65b3eb"] ;
5 -> 13 ;
14 [label=<Feature 1 &le; -28.5<br/>gini = 0.234<br/>samples = 59<br/>value = [8, 51]<br/>class = Clase 1>, fillcolor="#58ace9"] ;
13 -> 14 ;
15 [label=<Feature 2 &le; 56.0<br/>gini = 0.311<br/>samples = 26<br/>value = [5, 21]<br/>class = Clase 1>, fillcolor="#68b4eb"] ;
14 -> 15 ;
16 [label=<gini = 0.0<br/>samples = 2<br/>value = [0, 2]<br/>class = Clase 1>, fillcolor="#399de5"] ;
15 -> 16 ;
17 [label=<Feature 1 &le; -29.5<br/>gini = 0.33<br/>samples = 24<br/>value = [5, 19]<br/>class = Clase 1>, fillcolor="#6db7ec"] ;
15 -> 17 ;
18 [label=<Feature 2 &le; 85.0<br/>gini = 0.32<br/>samples = 10<br/>value = [2, 8]<br/>class = Clase 1>, fillcolor="#6ab6ec"] ;
17 -> 18 ;
19 [label=<gini = 0.32<br/>samples = 5<br/>value = [1, 4]<br/>class = Clase 1>, fillcolor="#6ab6ec"] ;
18 -> 19 ;
20 [label=<gini = 0.32<br/>samples = 5<br/>value = [1, 4]<br/>class = Clase 1>, fillcolor="#6ab6ec"] ;
18 -> 20 ;
21 [label=<Feature 2 &le; 76.5<br/>gini = 0.337<br/>samples = 14<br/>value = [3, 11]<br/>class = Clase 1>, fillcolor="#6fb8ec"] ;
17 -> 21 ;
22 [label=<gini = 0.32<br/>samples = 5<br/>value = [1, 4]<br/>class = Clase 1>, fillcolor="#6ab6ec"] ;
21 -> 22 ;
23 [label=<Feature 2 &le; 105.5<br/>gini = 0.346<br/>samples = 9<br/>value = [2, 7]<br/>class = Clase 1>, fillcolor="#72b9ec"] ;
21 -> 23 ;
24 [label=<gini = 0.375<br/>samples = 4<br/>value = [1, 3]<br/>class = Clase 1>, fillcolor="#7bbeee"] ;
23 -> 24 ;
25 [label=<gini = 0.32<br/>samples = 5<br/>value = [1, 4]<br/>class = Clase 1>, fillcolor="#6ab6ec"] ;
23 -> 25 ;
26 [label=<Feature 1 &le; -27.5<br/>gini = 0.165<br/>samples = 33<br/>value = [3, 30]<br/>class = Clase 1>, fillcolor="#4da7e8"] ;
14 -> 26 ;
27 [label=<gini = 0.0<br/>samples = 14<br/>value = [0, 14]<br/>class = Clase 1>, fillcolor="#399de5"] ;
26 -> 27 ;
28 [label=<Feature 2 &le; 65.5<br/>gini = 0.266<br/>samples = 19<br/>value = [3, 16]<br/>class = Clase 1>, fillcolor="#5eafea"] ;
26 -> 28 ;
29 [label=<gini = 0.219<br/>samples = 8<br/>value = [1, 7]<br/>class = Clase 1>, fillcolor="#55abe9"] ;
28 -> 29 ;
30 [label=<Feature 2 &le; 92.5<br/>gini = 0.298<br/>samples = 11<br/>value = [2, 9]<br/>class = Clase 1>, fillcolor="#65b3eb"] ;
28 -> 30 ;
31 [label=<gini = 0.32<br/>samples = 5<br/>value = [1, 4]<br/>class = Clase 1>, fillcolor="#6ab6ec"] ;
30 -> 31 ;
32 [label=<gini = 0.278<br/>samples = 6<br/>value = [1, 5]<br/>class = Clase 1>, fillcolor="#61b1ea"] ;
30 -> 32 ;
33 [label=<Feature 2 &le; 101.0<br/>gini = 0.329<br/>samples = 101<br/>value = [21, 80]<br/>class = Clase 1>, fillcolor="#6db7ec"] ;
13 -> 33 ;
34 [label=<Feature 1 &le; -24.5<br/>gini = 0.298<br/>samples = 77<br/>value = [14.0, 63.0]<br/>class = Clase 1>, fillcolor="#65b3eb"] ;
33 -> 34 ;
35 [label=<Feature 2 &le; 62.5<br/>gini = 0.375<br/>samples = 20<br/>value = [5, 15]<br/>class = Clase 1>, fillcolor="#7bbeee"] ;
34 -> 35 ;
36 [label=<Feature 1 &le; -25.5<br/>gini = 0.32<br/>samples = 10<br/>value = [2, 8]<br/>class = Clase 1>, fillcolor="#6ab6ec"] ;
35 -> 36 ;
37 [label=<gini = 0.32<br/>samples = 5<br/>value = [1, 4]<br/>class = Clase 1>, fillcolor="#6ab6ec"] ;
36 -> 37 ;
38 [label=<gini = 0.32<br/>samples = 5<br/>value = [1, 4]<br/>class = Clase 1>, fillcolor="#6ab6ec"] ;
36 -> 38 ;
39 [label=<Feature 1 &le; -25.5<br/>gini = 0.42<br/>samples = 10<br/>value = [3, 7]<br/>class = Clase 1>, fillcolor="#8ec7f0"] ;
35 -> 39 ;
40 [label=<gini = 0.375<br/>samples = 4<br/>value = [1, 3]<br/>class = Clase 1>, fillcolor="#7bbeee"] ;
39 -> 40 ;
41 [label=<Feature 2 &le; 87.5<br/>gini = 0.444<br/>samples = 6<br/>value = [2, 4]<br/>class = Clase 1>, fillcolor="#9ccef2"] ;
39 -> 41 ;
42 [label=<gini = 0.444<br/>samples = 3<br/>value = [1, 2]<br/>class = Clase 1>, fillcolor="#9ccef2"] ;
41 -> 42 ;
43 [label=<gini = 0.444<br/>samples = 3<br/>value = [1, 2]<br/>class = Clase 1>, fillcolor="#9ccef2"] ;
41 -> 43 ;
44 [label=<Feature 2 &le; 59.0<br/>gini = 0.266<br/>samples = 57<br/>value = [9, 48]<br/>class = Clase 1>, fillcolor="#5eafea"] ;
34 -> 44 ;
45 [label=<Feature 2 &le; 54.0<br/>gini = 0.337<br/>samples = 14<br/>value = [3, 11]<br/>class = Clase 1>, fillcolor="#6fb8ec"] ;
44 -> 45 ;
46 [label=<gini = 0.245<br/>samples = 7<br/>value = [1, 6]<br/>class = Clase 1>, fillcolor="#5aade9"] ;
45 -> 46 ;
47 [label=<gini = 0.408<br/>samples = 7<br/>value = [2, 5]<br/>class = Clase 1>, fillcolor="#88c4ef"] ;
45 -> 47 ;
48 [label=<Feature 2 &le; 77.5<br/>gini = 0.24<br/>samples = 43<br/>value = [6, 37]<br/>class = Clase 1>, fillcolor="#59ade9"] ;
44 -> 48 ;
49 [label=<Feature 1 &le; -23.0<br/>gini = 0.208<br/>samples = 17<br/>value = [2, 15]<br/>class = Clase 1>, fillcolor="#53aae8"] ;
48 -> 49 ;
50 [label=<gini = 0.198<br/>samples = 9<br/>value = [1, 8]<br/>class = Clase 1>, fillcolor="#52a9e8"] ;
49 -> 50 ;
51 [label=<gini = 0.219<br/>samples = 8<br/>value = [1, 7]<br/>class = Clase 1>, fillcolor="#55abe9"] ;
49 -> 51 ;
52 [label=<Feature 2 &le; 81.5<br/>gini = 0.26<br/>samples = 26<br/>value = [4, 22]<br/>class = Clase 1>, fillcolor="#5dafea"] ;
48 -> 52 ;
53 [label=<gini = 0.346<br/>samples = 9<br/>value = [2, 7]<br/>class = Clase 1>, fillcolor="#72b9ec"] ;
52 -> 53 ;
54 [label=<Feature 1 &le; -23.0<br/>gini = 0.208<br/>samples = 17<br/>value = [2, 15]<br/>class = Clase 1>, fillcolor="#53aae8"] ;
52 -> 54 ;
55 [label=<gini = 0.219<br/>samples = 8<br/>value = [1, 7]<br/>class = Clase 1>, fillcolor="#55abe9"] ;
54 -> 55 ;
56 [label=<gini = 0.198<br/>samples = 9<br/>value = [1, 8]<br/>class = Clase 1>, fillcolor="#52a9e8"] ;
54 -> 56 ;
57 [label=<Feature 1 &le; -25.0<br/>gini = 0.413<br/>samples = 24<br/>value = [7, 17]<br/>class = Clase 1>, fillcolor="#8bc5f0"] ;
33 -> 57 ;
58 [label=<gini = 0.5<br/>samples = 2<br/>value = [1, 1]<br/>class = Clase 0>, fillcolor="#ffffff"] ;
57 -> 58 ;
59 [label=<Feature 1 &le; -22.5<br/>gini = 0.397<br/>samples = 22<br/>value = [6, 16]<br/>class = Clase 1>, fillcolor="#83c2ef"] ;
57 -> 59 ;
60 [label=<Feature 2 &le; 113.0<br/>gini = 0.375<br/>samples = 16<br/>value = [4, 12]<br/>class = Clase 1>, fillcolor="#7bbeee"] ;
59 -> 60 ;
61 [label=<gini = 0.375<br/>samples = 8<br/>value = [2, 6]<br/>class = Clase 1>, fillcolor="#7bbeee"] ;
60 -> 61 ;
62 [label=<gini = 0.375<br/>samples = 8<br/>value = [2, 6]<br/>class = Clase 1>, fillcolor="#7bbeee"] ;
60 -> 62 ;
63 [label=<gini = 0.444<br/>samples = 6<br/>value = [2, 4]<br/>class = Clase 1>, fillcolor="#9ccef2"] ;
59 -> 63 ;
64 [label=<Feature 1 &le; -11.5<br/>gini = 0.116<br/>samples = 486<br/>value = [30, 456]<br/>class = Clase 1>, fillcolor="#46a3e7"] ;
4 -> 64 ;
65 [label=<Feature 1 &le; -14.5<br/>gini = 0.065<br/>samples = 358<br/>value = [12, 346]<br/>class = Clase 1>, fillcolor="#40a0e6"] ;
64 -> 65 ;
66 [label=<Feature 2 &le; 34.5<br/>gini = 0.034<br/>samples = 229<br/>value = [4, 225]<br/>class = Clase 1>, fillcolor="#3d9fe5"] ;
65 -> 66 ;
67 [label=<Feature 1 &le; -17.5<br/>gini = 0.18<br/>samples = 10<br/>value = [1, 9]<br/>class = Clase 1>, fillcolor="#4fa8e8"] ;
66 -> 67 ;
68 [label=<gini = 0.245<br/>samples = 7<br/>value = [1, 6]<br/>class = Clase 1>, fillcolor="#5aade9"] ;
67 -> 68 ;
69 [label=<gini = 0.0<br/>samples = 3<br/>value = [0, 3]<br/>class = Clase 1>, fillcolor="#399de5"] ;
67 -> 69 ;
70 [label=<Feature 1 &le; -17.5<br/>gini = 0.027<br/>samples = 219<br/>value = [3, 216]<br/>class = Clase 1>, fillcolor="#3c9ee5"] ;
66 -> 70 ;
71 [label=<Feature 1 &le; -18.5<br/>gini = 0.049<br/>samples = 120<br/>value = [3, 117]<br/>class = Clase 1>, fillcolor="#3ea0e6"] ;
70 -> 71 ;
72 [label=<Feature 2 &le; 45.0<br/>gini = 0.024<br/>samples = 82<br/>value = [1, 81]<br/>class = Clase 1>, fillcolor="#3b9ee5"] ;
71 -> 72 ;
73 [label=<Feature 2 &le; 40.5<br/>gini = 0.08<br/>samples = 24<br/>value = [1, 23]<br/>class = Clase 1>, fillcolor="#42a1e6"] ;
72 -> 73 ;
74 [label=<gini = 0.0<br/>samples = 19<br/>value = [0, 19]<br/>class = Clase 1>, fillcolor="#399de5"] ;
73 -> 74 ;
75 [label=<gini = 0.32<br/>samples = 5<br/>value = [1, 4]<br/>class = Clase 1>, fillcolor="#6ab6ec"] ;
73 -> 75 ;
76 [label=<gini = 0.0<br/>samples = 58<br/>value = [0, 58]<br/>class = Clase 1>, fillcolor="#399de5"] ;
72 -> 76 ;
77 [label=<Feature 2 &le; 61.0<br/>gini = 0.1<br/>samples = 38<br/>value = [2, 36]<br/>class = Clase 1>, fillcolor="#44a2e6"] ;
71 -> 77 ;
78 [label=<gini = 0.0<br/>samples = 12<br/>value = [0, 12]<br/>class = Clase 1>, fillcolor="#399de5"] ;
77 -> 78 ;
79 [label=<Feature 2 &le; 97.0<br/>gini = 0.142<br/>samples = 26<br/>value = [2, 24]<br/>class = Clase 1>, fillcolor="#49a5e7"] ;
77 -> 79 ;
80 [label=<Feature 2 &le; 79.0<br/>gini = 0.231<br/>samples = 15<br/>value = [2, 13]<br/>class = Clase 1>, fillcolor="#57ace9"] ;
79 -> 80 ;
81 [label=<gini = 0.245<br/>samples = 7<br/>value = [1, 6]<br/>class = Clase 1>, fillcolor="#5aade9"] ;
80 -> 81 ;
82 [label=<gini = 0.219<br/>samples = 8<br/>value = [1, 7]<br/>class = Clase 1>, fillcolor="#55abe9"] ;
80 -> 82 ;
83 [label=<gini = 0.0<br/>samples = 11<br/>value = [0, 11]<br/>class = Clase 1>, fillcolor="#399de5"] ;
79 -> 83 ;
84 [label=<gini = 0.0<br/>samples = 99<br/>value = [0, 99]<br/>class = Clase 1>, fillcolor="#399de5"] ;
70 -> 84 ;
85 [label=<Feature 1 &le; -13.5<br/>gini = 0.116<br/>samples = 129<br/>value = [8, 121]<br/>class = Clase 1>, fillcolor="#46a3e7"] ;
65 -> 85 ;
86 [label=<Feature 2 &le; 91.0<br/>gini = 0.206<br/>samples = 43<br/>value = [5, 38]<br/>class = Clase 1>, fillcolor="#53aae8"] ;
85 -> 86 ;
87 [label=<Feature 2 &le; 77.0<br/>gini = 0.18<br/>samples = 30<br/>value = [3, 27]<br/>class = Clase 1>, fillcolor="#4fa8e8"] ;
86 -> 87 ;
88 [label=<Feature 2 &le; 63.0<br/>gini = 0.211<br/>samples = 25<br/>value = [3, 22]<br/>class = Clase 1>, fillcolor="#54aae9"] ;
87 -> 88 ;
89 [label=<Feature 2 &le; 49.0<br/>gini = 0.18<br/>samples = 20<br/>value = [2, 18]<br/>class = Clase 1>, fillcolor="#4fa8e8"] ;
88 -> 89 ;
90 [label=<gini = 0.153<br/>samples = 12<br/>value = [1, 11]<br/>class = Clase 1>, fillcolor="#4ba6e7"] ;
89 -> 90 ;
91 [label=<gini = 0.219<br/>samples = 8<br/>value = [1, 7]<br/>class = Clase 1>, fillcolor="#55abe9"] ;
89 -> 91 ;
92 [label=<gini = 0.32<br/>samples = 5<br/>value = [1, 4]<br/>class = Clase 1>, fillcolor="#6ab6ec"] ;
88 -> 92 ;
93 [label=<gini = 0.0<br/>samples = 5<br/>value = [0, 5]<br/>class = Clase 1>, fillcolor="#399de5"] ;
87 -> 93 ;
94 [label=<Feature 2 &le; 105.0<br/>gini = 0.26<br/>samples = 13<br/>value = [2, 11]<br/>class = Clase 1>, fillcolor="#5dafea"] ;
86 -> 94 ;
95 [label=<gini = 0.245<br/>samples = 7<br/>value = [1, 6]<br/>class = Clase 1>, fillcolor="#5aade9"] ;
94 -> 95 ;
96 [label=<gini = 0.278<br/>samples = 6<br/>value = [1, 5]<br/>class = Clase 1>, fillcolor="#61b1ea"] ;
94 -> 96 ;
97 [label=<Feature 2 &le; 34.5<br/>gini = 0.067<br/>samples = 86<br/>value = [3, 83]<br/>class = Clase 1>, fillcolor="#40a1e6"] ;
85 -> 97 ;
98 [label=<gini = 0.278<br/>samples = 6<br/>value = [1, 5]<br/>class = Clase 1>, fillcolor="#61b1ea"] ;
97 -> 98 ;
99 [label=<Feature 2 &le; 119.5<br/>gini = 0.049<br/>samples = 80<br/>value = [2, 78]<br/>class = Clase 1>, fillcolor="#3ea0e6"] ;
97 -> 99 ;
100 [label=<Feature 2 &le; 47.0<br/>gini = 0.027<br/>samples = 72<br/>value = [1, 71]<br/>class = Clase 1>, fillcolor="#3c9ee5"] ;
99 -> 100 ;
101 [label=<Feature 2 &le; 42.5<br/>gini = 0.117<br/>samples = 16<br/>value = [1, 15]<br/>class = Clase 1>, fillcolor="#46a4e7"] ;
100 -> 101 ;
102 [label=<gini = 0.0<br/>samples = 11<br/>value = [0, 11]<br/>class = Clase 1>, fillcolor="#399de5"] ;
101 -> 102 ;
103 [label=<gini = 0.32<br/>samples = 5<br/>value = [1, 4]<br/>class = Clase 1>, fillcolor="#6ab6ec"] ;
101 -> 103 ;
104 [label=<gini = 0.0<br/>samples = 56<br/>value = [0, 56]<br/>class = Clase 1>, fillcolor="#399de5"] ;
100 -> 104 ;
105 [label=<gini = 0.219<br/>samples = 8<br/>value = [1, 7]<br/>class = Clase 1>, fillcolor="#55abe9"] ;
99 -> 105 ;
106 [label=<Feature 2 &le; 50.5<br/>gini = 0.242<br/>samples = 128<br/>value = [18, 110]<br/>class = Clase 1>, fillcolor="#59ade9"] ;
64 -> 106 ;
107 [label=<Feature 1 &le; -10.5<br/>gini = 0.423<br/>samples = 46<br/>value = [14, 32]<br/>class = Clase 1>, fillcolor="#90c8f0"] ;
106 -> 107 ;
108 [label=<Feature 2 &le; 38.5<br/>gini = 0.36<br/>samples = 17<br/>value = [4, 13]<br/>class = Clase 1>, fillcolor="#76bbed"] ;
107 -> 108 ;
109 [label=<gini = 0.48<br/>samples = 5<br/>value = [2, 3]<br/>class = Clase 1>, fillcolor="#bddef6"] ;
108 -> 109 ;
110 [label=<Feature 2 &le; 44.0<br/>gini = 0.278<br/>samples = 12<br/>value = [2, 10]<br/>class = Clase 1>, fillcolor="#61b1ea"] ;
108 -> 110 ;
111 [label=<gini = 0.0<br/>samples = 7<br/>value = [0, 7]<br/>class = Clase 1>, fillcolor="#399de5"] ;
110 -> 111 ;
112 [label=<gini = 0.48<br/>samples = 5<br/>value = [2, 3]<br/>class = Clase 1>, fillcolor="#bddef6"] ;
110 -> 112 ;
113 [label=<Feature 2 &le; 45.0<br/>gini = 0.452<br/>samples = 29<br/>value = [10, 19]<br/>class = Clase 1>, fillcolor="#a1d1f3"] ;
107 -> 113 ;
114 [label=<Feature 2 &le; 35.0<br/>gini = 0.472<br/>samples = 21<br/>value = [8, 13]<br/>class = Clase 1>, fillcolor="#b3d9f5"] ;
113 -> 114 ;
115 [label=<gini = 0.444<br/>samples = 12<br/>value = [4, 8]<br/>class = Clase 1>, fillcolor="#9ccef2"] ;
114 -> 115 ;
116 [label=<gini = 0.494<br/>samples = 9<br/>value = [4, 5]<br/>class = Clase 1>, fillcolor="#d7ebfa"] ;
114 -> 116 ;
117 [label=<gini = 0.375<br/>samples = 8<br/>value = [2, 6]<br/>class = Clase 1>, fillcolor="#7bbeee"] ;
113 -> 117 ;
118 [label=<Feature 2 &le; 113.5<br/>gini = 0.093<br/>samples = 82<br/>value = [4, 78]<br/>class = Clase 1>, fillcolor="#43a2e6"] ;
106 -> 118 ;
119 [label=<gini = 0.0<br/>samples = 71<br/>value = [0, 71]<br/>class = Clase 1>, fillcolor="#399de5"] ;
118 -> 119 ;
120 [label=<Feature 1 &le; -10.5<br/>gini = 0.463<br/>samples = 11<br/>value = [4, 7]<br/>class = Clase 1>, fillcolor="#aad5f4"] ;
118 -> 120 ;
121 [label=<gini = 0.469<br/>samples = 8<br/>value = [3, 5]<br/>class = Clase 1>, fillcolor="#b0d8f5"] ;
120 -> 121 ;
122 [label=<gini = 0.444<br/>samples = 3<br/>value = [1, 2]<br/>class = Clase 1>, fillcolor="#9ccef2"] ;
120 -> 122 ;
123 [label=<Feature 1 &le; -10.5<br/>gini = 0.407<br/>samples = 74<br/>value = [21, 53]<br/>class = Clase 1>, fillcolor="#87c4ef"] ;
1 -> 123 ;
124 [label=<Feature 1 &le; -12.0<br/>gini = 0.344<br/>samples = 68<br/>value = [15, 53]<br/>class = Clase 1>, fillcolor="#71b9ec"] ;
123 -> 124 ;
125 [label=<Feature 1 &le; -21.5<br/>gini = 0.316<br/>samples = 61<br/>value = [12, 49]<br/>class = Clase 1>, fillcolor="#69b5eb"] ;
124 -> 125 ;
126 [label=<Feature 1 &le; -28.5<br/>gini = 0.382<br/>samples = 35<br/>value = [9, 26]<br/>class = Clase 1>, fillcolor="#7ebfee"] ;
125 -> 126 ;
127 [label=<gini = 0.48<br/>samples = 5<br/>value = [2, 3]<br/>class = Clase 1>, fillcolor="#bddef6"] ;
126 -> 127 ;
128 [label=<Feature 1 &le; -25.5<br/>gini = 0.358<br/>samples = 30<br/>value = [7, 23]<br/>class = Clase 1>, fillcolor="#75bbed"] ;
126 -> 128 ;
129 [label=<Feature 2 &le; 130.5<br/>gini = 0.298<br/>samples = 11<br/>value = [2, 9]<br/>class = Clase 1>, fillcolor="#65b3eb"] ;
128 -> 129 ;
130 [label=<gini = 0.32<br/>samples = 5<br/>value = [1, 4]<br/>class = Clase 1>, fillcolor="#6ab6ec"] ;
129 -> 130 ;
131 [label=<gini = 0.278<br/>samples = 6<br/>value = [1, 5]<br/>class = Clase 1>, fillcolor="#61b1ea"] ;
129 -> 131 ;
132 [label=<Feature 1 &le; -24.0<br/>gini = 0.388<br/>samples = 19<br/>value = [5, 14]<br/>class = Clase 1>, fillcolor="#80c0ee"] ;
128 -> 132 ;
133 [label=<gini = 0.444<br/>samples = 3<br/>value = [1, 2]<br/>class = Clase 1>, fillcolor="#9ccef2"] ;
132 -> 133 ;
134 [label=<Feature 1 &le; -22.5<br/>gini = 0.375<br/>samples = 16<br/>value = [4, 12]<br/>class = Clase 1>, fillcolor="#7bbeee"] ;
132 -> 134 ;
135 [label=<gini = 0.375<br/>samples = 8<br/>value = [2, 6]<br/>class = Clase 1>, fillcolor="#7bbeee"] ;
134 -> 135 ;
136 [label=<gini = 0.375<br/>samples = 8<br/>value = [2, 6]<br/>class = Clase 1>, fillcolor="#7bbeee"] ;
134 -> 136 ;
137 [label=<Feature 1 &le; -17.0<br/>gini = 0.204<br/>samples = 26<br/>value = [3, 23]<br/>class = Clase 1>, fillcolor="#53aae8"] ;
125 -> 137 ;
138 [label=<gini = 0.0<br/>samples = 13<br/>value = [0, 13]<br/>class = Clase 1>, fillcolor="#399de5"] ;
137 -> 138 ;
139 [label=<Feature 1 &le; -13.5<br/>gini = 0.355<br/>samples = 13<br/>value = [3, 10]<br/>class = Clase 1>, fillcolor="#74baed"] ;
137 -> 139 ;
140 [label=<Feature 2 &le; 128.0<br/>gini = 0.444<br/>samples = 9<br/>value = [3, 6]<br/>class = Clase 1>, fillcolor="#9ccef2"] ;
139 -> 140 ;
141 [label=<gini = 0.408<br/>samples = 7<br/>value = [2, 5]<br/>class = Clase 1>, fillcolor="#88c4ef"] ;
140 -> 141 ;
142 [label=<gini = 0.5<br/>samples = 2<br/>value = [1, 1]<br/>class = Clase 0>, fillcolor="#ffffff"] ;
140 -> 142 ;
143 [label=<gini = 0.0<br/>samples = 4<br/>value = [0, 4]<br/>class = Clase 1>, fillcolor="#399de5"] ;
139 -> 143 ;
144 [label=<gini = 0.49<br/>samples = 7<br/>value = [3, 4]<br/>class = Clase 1>, fillcolor="#cee6f8"] ;
124 -> 144 ;
145 [label=<gini = 0.0<br/>samples = 6<br/>value = [6, 0]<br/>class = Clase 0>, fillcolor="#e58139"] ;
123 -> 145 ;
146 [label=<Feature 2 &le; 459.0<br/>gini = 0.456<br/>samples = 3632<br/>value = [2354, 1278]<br/>class = Clase 0>, fillcolor="#f3c5a4"] ;
0 -> 146 [labeldistance=2.5, labelangle=-45, headlabel="False"] ;
147 [label=<Feature 1 &le; -19.5<br/>gini = 0.37<br/>samples = 2071<br/>value = [1563, 508]<br/>class = Clase 0>, fillcolor="#edaa79"] ;
146 -> 147 ;
148 [label=<Feature 2 &le; 198.0<br/>gini = 0.496<br/>samples = 769<br/>value = [419.0, 350.0]<br/>class = Clase 0>, fillcolor="#fbeade"] ;
147 -> 148 ;
149 [label=<Feature 2 &le; 171.5<br/>gini = 0.412<br/>samples = 155<br/>value = [45, 110]<br/>class = Clase 1>, fillcolor="#8ac5f0"] ;
148 -> 149 ;
150 [label=<Feature 1 &le; -21.5<br/>gini = 0.289<br/>samples = 80<br/>value = [14, 66]<br/>class = Clase 1>, fillcolor="#63b2eb"] ;
149 -> 150 ;
151 [label=<Feature 2 &le; 149.5<br/>gini = 0.334<br/>samples = 66<br/>value = [14, 52]<br/>class = Clase 1>, fillcolor="#6eb7ec"] ;
150 -> 151 ;
152 [label=<Feature 1 &le; -23.5<br/>gini = 0.211<br/>samples = 25<br/>value = [3, 22]<br/>class = Clase 1>, fillcolor="#54aae9"] ;
151 -> 152 ;
153 [label=<Feature 2 &le; 148.5<br/>gini = 0.278<br/>samples = 18<br/>value = [3, 15]<br/>class = Clase 1>, fillcolor="#61b1ea"] ;
152 -> 153 ;
154 [label=<Feature 1 &le; -26.0<br/>gini = 0.32<br/>samples = 15<br/>value = [3, 12]<br/>class = Clase 1>, fillcolor="#6ab6ec"] ;
153 -> 154 ;
155 [label=<gini = 0.278<br/>samples = 6<br/>value = [1, 5]<br/>class = Clase 1>, fillcolor="#61b1ea"] ;
154 -> 155 ;
156 [label=<gini = 0.346<br/>samples = 9<br/>value = [2, 7]<br/>class = Clase 1>, fillcolor="#72b9ec"] ;
154 -> 156 ;
157 [label=<gini = 0.0<br/>samples = 3<br/>value = [0, 3]<br/>class = Clase 1>, fillcolor="#399de5"] ;
153 -> 157 ;
158 [label=<gini = 0.0<br/>samples = 7<br/>value = [0, 7]<br/>class = Clase 1>, fillcolor="#399de5"] ;
152 -> 158 ;
159 [label=<Feature 2 &le; 152.0<br/>gini = 0.393<br/>samples = 41<br/>value = [11, 30]<br/>class = Clase 1>, fillcolor="#82c1ef"] ;
151 -> 159 ;
160 [label=<Feature 1 &le; -23.5<br/>gini = 0.486<br/>samples = 12<br/>value = [5, 7]<br/>class = Clase 1>, fillcolor="#c6e3f8"] ;
159 -> 160 ;
161 [label=<gini = 0.444<br/>samples = 3<br/>value = [2, 1]<br/>class = Clase 0>, fillcolor="#f2c09c"] ;
160 -> 161 ;
162 [label=<gini = 0.444<br/>samples = 9<br/>value = [3, 6]<br/>class = Clase 1>, fillcolor="#9ccef2"] ;
160 -> 162 ;
163 [label=<Feature 1 &le; -29.0<br/>gini = 0.328<br/>samples = 29<br/>value = [6, 23]<br/>class = Clase 1>, fillcolor="#6db7ec"] ;
159 -> 163 ;
164 [label=<gini = 0.444<br/>samples = 6<br/>value = [2, 4]<br/>class = Clase 1>, fillcolor="#9ccef2"] ;
163 -> 164 ;
165 [label=<Feature 1 &le; -27.5<br/>gini = 0.287<br/>samples = 23<br/>value = [4, 19]<br/>class = Clase 1>, fillcolor="#63b2ea"] ;
163 -> 165 ;
166 [label=<gini = 0.0<br/>samples = 5<br/>value = [0, 5]<br/>class = Clase 1>, fillcolor="#399de5"] ;
165 -> 166 ;
167 [label=<Feature 1 &le; -24.5<br/>gini = 0.346<br/>samples = 18<br/>value = [4, 14]<br/>class = Clase 1>, fillcolor="#72b9ec"] ;
165 -> 167 ;
168 [label=<Feature 2 &le; 157.0<br/>gini = 0.298<br/>samples = 11<br/>value = [2, 9]<br/>class = Clase 1>, fillcolor="#65b3eb"] ;
167 -> 168 ;
169 [label=<gini = 0.32<br/>samples = 5<br/>value = [1, 4]<br/>class = Clase 1>, fillcolor="#6ab6ec"] ;
168 -> 169 ;
170 [label=<gini = 0.278<br/>samples = 6<br/>value = [1, 5]<br/>class = Clase 1>, fillcolor="#61b1ea"] ;
168 -> 170 ;
171 [label=<gini = 0.408<br/>samples = 7<br/>value = [2, 5]<br/>class = Clase 1>, fillcolor="#88c4ef"] ;
167 -> 171 ;
172 [label=<gini = 0.0<br/>samples = 14<br/>value = [0, 14]<br/>class = Clase 1>, fillcolor="#399de5"] ;
150 -> 172 ;
173 [label=<Feature 2 &le; 179.0<br/>gini = 0.485<br/>samples = 75<br/>value = [31, 44]<br/>class = Clase 1>, fillcolor="#c4e2f7"] ;
149 -> 173 ;
174 [label=<Feature 1 &le; -23.0<br/>gini = 0.497<br/>samples = 28<br/>value = [15, 13]<br/>class = Clase 0>, fillcolor="#fceee5"] ;
173 -> 174 ;
175 [label=<Feature 2 &le; 176.5<br/>gini = 0.48<br/>samples = 15<br/>value = [9, 6]<br/>class = Clase 0>, fillcolor="#f6d5bd"] ;
174 -> 175 ;
176 [label=<Feature 1 &le; -24.5<br/>gini = 0.463<br/>samples = 11<br/>value = [7, 4]<br/>class = Clase 0>, fillcolor="#f4c9aa"] ;
175 -> 176 ;
177 [label=<gini = 0.444<br/>samples = 3<br/>value = [2, 1]<br/>class = Clase 0>, fillcolor="#f2c09c"] ;
176 -> 177 ;
178 [label=<gini = 0.469<br/>samples = 8<br/>value = [5, 3]<br/>class = Clase 0>, fillcolor="#f5cdb0"] ;
176 -> 178 ;
179 [label=<gini = 0.5<br/>samples = 4<br/>value = [2, 2]<br/>class = Clase 0>, fillcolor="#ffffff"] ;
175 -> 179 ;
180 [label=<Feature 1 &le; -21.5<br/>gini = 0.497<br/>samples = 13<br/>value = [6, 7]<br/>class = Clase 1>, fillcolor="#e3f1fb"] ;
174 -> 180 ;
181 [label=<gini = 0.469<br/>samples = 8<br/>value = [3, 5]<br/>class = Clase 1>, fillcolor="#b0d8f5"] ;
180 -> 181 ;
182 [label=<gini = 0.48<br/>samples = 5<br/>value = [3, 2]<br/>class = Clase 0>, fillcolor="#f6d5bd"] ;
180 -> 182 ;
183 [label=<Feature 1 &le; -23.5<br/>gini = 0.449<br/>samples = 47<br/>value = [16.0, 31.0]<br/>class = Clase 1>, fillcolor="#9fd0f2"] ;
173 -> 183 ;
184 [label=<Feature 1 &le; -29.0<br/>gini = 0.355<br/>samples = 26<br/>value = [6, 20]<br/>class = Clase 1>, fillcolor="#74baed"] ;
183 -> 184 ;
185 [label=<gini = 0.444<br/>samples = 3<br/>value = [2, 1]<br/>class = Clase 0>, fillcolor="#f2c09c"] ;
184 -> 185 ;
186 [label=<Feature 1 &le; -27.5<br/>gini = 0.287<br/>samples = 23<br/>value = [4, 19]<br/>class = Clase 1>, fillcolor="#63b2ea"] ;
184 -> 186 ;
187 [label=<gini = 0.0<br/>samples = 5<br/>value = [0, 5]<br/>class = Clase 1>, fillcolor="#399de5"] ;
186 -> 187 ;
188 [label=<Feature 2 &le; 183.5<br/>gini = 0.346<br/>samples = 18<br/>value = [4, 14]<br/>class = Clase 1>, fillcolor="#72b9ec"] ;
186 -> 188 ;
189 [label=<gini = 0.444<br/>samples = 3<br/>value = [1, 2]<br/>class = Clase 1>, fillcolor="#9ccef2"] ;
188 -> 189 ;
190 [label=<Feature 2 &le; 191.5<br/>gini = 0.32<br/>samples = 15<br/>value = [3, 12]<br/>class = Clase 1>, fillcolor="#6ab6ec"] ;
188 -> 190 ;
191 [label=<gini = 0.32<br/>samples = 5<br/>value = [1, 4]<br/>class = Clase 1>, fillcolor="#6ab6ec"] ;
190 -> 191 ;
192 [label=<gini = 0.32<br/>samples = 10<br/>value = [2, 8]<br/>class = Clase 1>, fillcolor="#6ab6ec"] ;
190 -> 192 ;
193 [label=<Feature 2 &le; 195.0<br/>gini = 0.499<br/>samples = 21<br/>value = [10, 11]<br/>class = Clase 1>, fillcolor="#edf6fd"] ;
183 -> 193 ;
194 [label=<Feature 1 &le; -22.5<br/>gini = 0.469<br/>samples = 16<br/>value = [6, 10]<br/>class = Clase 1>, fillcolor="#b0d8f5"] ;
193 -> 194 ;
195 [label=<gini = 0.49<br/>samples = 7<br/>value = [4, 3]<br/>class = Clase 0>, fillcolor="#f8e0ce"] ;
194 -> 195 ;
196 [label=<Feature 1 &le; -21.0<br/>gini = 0.346<br/>samples = 9<br/>value = [2, 7]<br/>class = Clase 1>, fillcolor="#72b9ec"] ;
194 -> 196 ;
197 [label=<gini = 0.408<br/>samples = 7<br/>value = [2, 5]<br/>class = Clase 1>, fillcolor="#88c4ef"] ;
196 -> 197 ;
198 [label=<gini = 0.0<br/>samples = 2<br/>value = [0, 2]<br/>class = Clase 1>, fillcolor="#399de5"] ;
196 -> 198 ;
199 [label=<gini = 0.32<br/>samples = 5<br/>value = [4, 1]<br/>class = Clase 0>, fillcolor="#eca06a"] ;
193 -> 199 ;
200 [label=<Feature 1 &le; -29.5<br/>gini = 0.476<br/>samples = 614<br/>value = [374.0, 240.0]<br/>class = Clase 0>, fillcolor="#f6d2b8"] ;
148 -> 200 ;
201 [label=<Feature 2 &le; 355.0<br/>gini = 0.438<br/>samples = 34<br/>value = [11, 23]<br/>class = Clase 1>, fillcolor="#98ccf1"] ;
200 -> 201 ;
202 [label=<Feature 2 &le; 235.0<br/>gini = 0.375<br/>samples = 20<br/>value = [5, 15]<br/>class = Clase 1>, fillcolor="#7bbeee"] ;
201 -> 202 ;
203 [label=<gini = 0.48<br/>samples = 5<br/>value = [2, 3]<br/>class = Clase 1>, fillcolor="#bddef6"] ;
202 -> 203 ;
204 [label=<Feature 2 &le; 295.0<br/>gini = 0.32<br/>samples = 15<br/>value = [3, 12]<br/>class = Clase 1>, fillcolor="#6ab6ec"] ;
202 -> 204 ;
205 [label=<Feature 2 &le; 265.0<br/>gini = 0.245<br/>samples = 7<br/>value = [1, 6]<br/>class = Clase 1>, fillcolor="#5aade9"] ;
204 -> 205 ;
206 [label=<gini = 0.32<br/>samples = 5<br/>value = [1, 4]<br/>class = Clase 1>, fillcolor="#6ab6ec"] ;
205 -> 206 ;
207 [label=<gini = 0.0<br/>samples = 2<br/>value = [0, 2]<br/>class = Clase 1>, fillcolor="#399de5"] ;
205 -> 207 ;
208 [label=<Feature 2 &le; 325.0<br/>gini = 0.375<br/>samples = 8<br/>value = [2, 6]<br/>class = Clase 1>, fillcolor="#7bbeee"] ;
204 -> 208 ;
209 [label=<gini = 0.375<br/>samples = 4<br/>value = [1, 3]<br/>class = Clase 1>, fillcolor="#7bbeee"] ;
208 -> 209 ;
210 [label=<gini = 0.375<br/>samples = 4<br/>value = [1, 3]<br/>class = Clase 1>, fillcolor="#7bbeee"] ;
208 -> 210 ;
211 [label=<Feature 2 &le; 385.0<br/>gini = 0.49<br/>samples = 14<br/>value = [6, 8]<br/>class = Clase 1>, fillcolor="#cee6f8"] ;
201 -> 211 ;
212 [label=<gini = 0.48<br/>samples = 5<br/>value = [2, 3]<br/>class = Clase 1>, fillcolor="#bddef6"] ;
211 -> 212 ;
213 [label=<Feature 2 &le; 415.0<br/>gini = 0.494<br/>samples = 9<br/>value = [4, 5]<br/>class = Clase 1>, fillcolor="#d7ebfa"] ;
211 -> 213 ;
214 [label=<gini = 0.5<br/>samples = 4<br/>value = [2, 2]<br/>class = Clase 0>, fillcolor="#ffffff"] ;
213 -> 214 ;
215 [label=<gini = 0.48<br/>samples = 5<br/>value = [2, 3]<br/>class = Clase 1>, fillcolor="#bddef6"] ;
213 -> 215 ;
216 [label=<Feature 1 &le; -26.5<br/>gini = 0.468<br/>samples = 580<br/>value = [363.0, 217.0]<br/>class = Clase 0>, fillcolor="#f5ccaf"] ;
200 -> 216 ;
217 [label=<Feature 1 &le; -27.5<br/>gini = 0.389<br/>samples = 151<br/>value = [111, 40]<br/>class = Clase 0>, fillcolor="#eeae80"] ;
216 -> 217 ;
218 [label=<Feature 2 &le; 429.5<br/>gini = 0.49<br/>samples = 84<br/>value = [48, 36]<br/>class = Clase 0>, fillcolor="#f8e0ce"] ;
217 -> 218 ;
219 [label=<Feature 2 &le; 244.0<br/>gini = 0.494<br/>samples = 74<br/>value = [41, 33]<br/>class = Clase 0>, fillcolor="#fae6d8"] ;
218 -> 219 ;
220 [label=<Feature 1 &le; -28.5<br/>gini = 0.497<br/>samples = 13<br/>value = [6, 7]<br/>class = Clase 1>, fillcolor="#e3f1fb"] ;
219 -> 220 ;
221 [label=<Feature 2 &le; 221.5<br/>gini = 0.375<br/>samples = 8<br/>value = [2, 6]<br/>class = Clase 1>, fillcolor="#7bbeee"] ;
220 -> 221 ;
222 [label=<gini = 0.48<br/>samples = 5<br/>value = [2, 3]<br/>class = Clase 1>, fillcolor="#bddef6"] ;
221 -> 222 ;
223 [label=<gini = 0.0<br/>samples = 3<br/>value = [0, 3]<br/>class = Clase 1>, fillcolor="#399de5"] ;
221 -> 223 ;
224 [label=<gini = 0.32<br/>samples = 5<br/>value = [4, 1]<br/>class = Clase 0>, fillcolor="#eca06a"] ;
220 -> 224 ;
225 [label=<Feature 2 &le; 386.5<br/>gini = 0.489<br/>samples = 61<br/>value = [35, 26]<br/>class = Clase 0>, fillcolor="#f8dfcc"] ;
219 -> 225 ;
226 [label=<Feature 2 &le; 358.0<br/>gini = 0.483<br/>samples = 44<br/>value = [26, 18]<br/>class = Clase 0>, fillcolor="#f7d8c2"] ;
225 -> 226 ;
227 [label=<Feature 1 &le; -28.5<br/>gini = 0.49<br/>samples = 35<br/>value = [20, 15]<br/>class = Clase 0>, fillcolor="#f8e0ce"] ;
226 -> 227 ;
228 [label=<Feature 2 &le; 279.5<br/>gini = 0.48<br/>samples = 15<br/>value = [9, 6]<br/>class = Clase 0>, fillcolor="#f6d5bd"] ;
227 -> 228 ;
229 [label=<gini = 0.5<br/>samples = 2<br/>value = [1, 1]<br/>class = Clase 0>, fillcolor="#ffffff"] ;
228 -> 229 ;
230 [label=<Feature 2 &le; 308.5<br/>gini = 0.473<br/>samples = 13<br/>value = [8, 5]<br/>class = Clase 0>, fillcolor="#f5d0b5"] ;
228 -> 230 ;
231 [label=<gini = 0.48<br/>samples = 5<br/>value = [3, 2]<br/>class = Clase 0>, fillcolor="#f6d5bd"] ;
230 -> 231 ;
232 [label=<Feature 2 &le; 337.5<br/>gini = 0.469<br/>samples = 8<br/>value = [5, 3]<br/>class = Clase 0>, fillcolor="#f5cdb0"] ;
230 -> 232 ;
233 [label=<gini = 0.444<br/>samples = 3<br/>value = [2, 1]<br/>class = Clase 0>, fillcolor="#f2c09c"] ;
232 -> 233 ;
234 [label=<gini = 0.48<br/>samples = 5<br/>value = [3, 2]<br/>class = Clase 0>, fillcolor="#f6d5bd"] ;
232 -> 234 ;
235 [label=<Feature 2 &le; 294.0<br/>gini = 0.495<br/>samples = 20<br/>value = [11, 9]<br/>class = Clase 0>, fillcolor="#fae8db"] ;
227 -> 235 ;
236 [label=<Feature 2 &le; 266.0<br/>gini = 0.48<br/>samples = 10<br/>value = [6, 4]<br/>class = Clase 0>, fillcolor="#f6d5bd"] ;
235 -> 236 ;
237 [label=<gini = 0.48<br/>samples = 5<br/>value = [3, 2]<br/>class = Clase 0>, fillcolor="#f6d5bd"] ;
236 -> 237 ;
238 [label=<gini = 0.48<br/>samples = 5<br/>value = [3, 2]<br/>class = Clase 0>, fillcolor="#f6d5bd"] ;
236 -> 238 ;
239 [label=<Feature 2 &le; 322.0<br/>gini = 0.5<br/>samples = 10<br/>value = [5, 5]<br/>class = Clase 0>, fillcolor="#ffffff"] ;
235 -> 239 ;
240 [label=<gini = 0.5<br/>samples = 6<br/>value = [3, 3]<br/>class = Clase 0>, fillcolor="#ffffff"] ;
239 -> 240 ;
241 [label=<gini = 0.5<br/>samples = 4<br/>value = [2, 2]<br/>class = Clase 0>, fillcolor="#ffffff"] ;
239 -> 241 ;
242 [label=<Feature 1 &le; -28.5<br/>gini = 0.444<br/>samples = 9<br/>value = [6, 3]<br/>class = Clase 0>, fillcolor="#f2c09c"] ;
226 -> 242 ;
243 [label=<gini = 0.48<br/>samples = 5<br/>value = [3, 2]<br/>class = Clase 0>, fillcolor="#f6d5bd"] ;
242 -> 243 ;
244 [label=<gini = 0.375<br/>samples = 4<br/>value = [3, 1]<br/>class = Clase 0>, fillcolor="#eeab7b"] ;
242 -> 244 ;
245 [label=<Feature 1 &le; -28.5<br/>gini = 0.498<br/>samples = 17<br/>value = [9, 8]<br/>class = Clase 0>, fillcolor="#fcf1e9"] ;
225 -> 245 ;
246 [label=<gini = 0.48<br/>samples = 5<br/>value = [3, 2]<br/>class = Clase 0>, fillcolor="#f6d5bd"] ;
245 -> 246 ;
247 [label=<Feature 2 &le; 406.0<br/>gini = 0.5<br/>samples = 12<br/>value = [6, 6]<br/>class = Clase 0>, fillcolor="#ffffff"] ;
245 -> 247 ;
248 [label=<gini = 0.5<br/>samples = 6<br/>value = [3, 3]<br/>class = Clase 0>, fillcolor="#ffffff"] ;
247 -> 248 ;
249 [label=<gini = 0.5<br/>samples = 6<br/>value = [3, 3]<br/>class = Clase 0>, fillcolor="#ffffff"] ;
247 -> 249 ;
250 [label=<Feature 1 &le; -28.5<br/>gini = 0.42<br/>samples = 10<br/>value = [7, 3]<br/>class = Clase 0>, fillcolor="#f0b78e"] ;
218 -> 250 ;
251 [label=<gini = 0.375<br/>samples = 4<br/>value = [3, 1]<br/>class = Clase 0>, fillcolor="#eeab7b"] ;
250 -> 251 ;
252 [label=<gini = 0.444<br/>samples = 6<br/>value = [4, 2]<br/>class = Clase 0>, fillcolor="#f2c09c"] ;
250 -> 252 ;
253 [label=<Feature 2 &le; 254.5<br/>gini = 0.112<br/>samples = 67<br/>value = [63, 4]<br/>class = Clase 0>, fillcolor="#e78946"] ;
217 -> 253 ;
254 [label=<Feature 2 &le; 227.5<br/>gini = 0.426<br/>samples = 13<br/>value = [9, 4]<br/>class = Clase 0>, fillcolor="#f1b991"] ;
253 -> 254 ;
255 [label=<gini = 0.408<br/>samples = 7<br/>value = [5, 2]<br/>class = Clase 0>, fillcolor="#efb388"] ;
254 -> 255 ;
256 [label=<gini = 0.444<br/>samples = 6<br/>value = [4, 2]<br/>class = Clase 0>, fillcolor="#f2c09c"] ;
254 -> 256 ;
257 [label=<gini = 0.0<br/>samples = 54<br/>value = [54, 0]<br/>class = Clase 0>, fillcolor="#e58139"] ;
253 -> 257 ;
258 [label=<Feature 1 &le; -22.5<br/>gini = 0.485<br/>samples = 429<br/>value = [252, 177]<br/>class = Clase 0>, fillcolor="#f7dac4"] ;
216 -> 258 ;
259 [label=<Feature 2 &le; 203.0<br/>gini = 0.499<br/>samples = 239<br/>value = [126.0, 113.0]<br/>class = Clase 0>, fillcolor="#fcf2eb"] ;
258 -> 259 ;
260 [label=<gini = 0.0<br/>samples = 2<br/>value = [2, 0]<br/>class = Clase 0>, fillcolor="#e58139"] ;
259 -> 260 ;
261 [label=<Feature 1 &le; -24.5<br/>gini = 0.499<br/>samples = 237<br/>value = [124.0, 113.0]<br/>class = Clase 0>, fillcolor="#fdf4ed"] ;
259 -> 261 ;
262 [label=<Feature 2 &le; 356.0<br/>gini = 0.495<br/>samples = 71<br/>value = [32, 39]<br/>class = Clase 1>, fillcolor="#dbedfa"] ;
261 -> 262 ;
263 [label=<Feature 2 &le; 343.0<br/>gini = 0.476<br/>samples = 41<br/>value = [16, 25]<br/>class = Clase 1>, fillcolor="#b8dcf6"] ;
262 -> 263 ;
264 [label=<Feature 2 &le; 215.5<br/>gini = 0.484<br/>samples = 39<br/>value = [16, 23]<br/>class = Clase 1>, fillcolor="#c3e1f7"] ;
263 -> 264 ;
265 [label=<gini = 0.375<br/>samples = 4<br/>value = [1, 3]<br/>class = Clase 1>, fillcolor="#7bbeee"] ;
264 -> 265 ;
266 [label=<Feature 2 &le; 241.0<br/>gini = 0.49<br/>samples = 35<br/>value = [15, 20]<br/>class = Clase 1>, fillcolor="#cee6f8"] ;
264 -> 266 ;
267 [label=<Feature 1 &le; -25.5<br/>gini = 0.444<br/>samples = 6<br/>value = [4, 2]<br/>class = Clase 0>, fillcolor="#f2c09c"] ;
266 -> 267 ;
268 [label=<gini = 0.444<br/>samples = 3<br/>value = [2, 1]<br/>class = Clase 0>, fillcolor="#f2c09c"] ;
267 -> 268 ;
269 [label=<gini = 0.444<br/>samples = 3<br/>value = [2, 1]<br/>class = Clase 0>, fillcolor="#f2c09c"] ;
267 -> 269 ;
270 [label=<Feature 2 &le; 254.0<br/>gini = 0.471<br/>samples = 29<br/>value = [11, 18]<br/>class = Clase 1>, fillcolor="#b2d9f5"] ;
266 -> 270 ;
271 [label=<gini = 0.0<br/>samples = 2<br/>value = [0, 2]<br/>class = Clase 1>, fillcolor="#399de5"] ;
270 -> 271 ;
272 [label=<Feature 2 &le; 266.5<br/>gini = 0.483<br/>samples = 27<br/>value = [11, 16]<br/>class = Clase 1>, fillcolor="#c1e0f7"] ;
270 -> 272 ;
273 [label=<gini = 0.444<br/>samples = 6<br/>value = [2, 4]<br/>class = Clase 1>, fillcolor="#9ccef2"] ;
272 -> 273 ;
274 [label=<Feature 2 &le; 279.5<br/>gini = 0.49<br/>samples = 21<br/>value = [9, 12]<br/>class = Clase 1>, fillcolor="#cee6f8"] ;
272 -> 274 ;
275 [label=<gini = 0.0<br/>samples = 1<br/>value = [1, 0]<br/>class = Clase 0>, fillcolor="#e58139"] ;
274 -> 275 ;
276 [label=<Feature 2 &le; 330.5<br/>gini = 0.48<br/>samples = 20<br/>value = [8, 12]<br/>class = Clase 1>, fillcolor="#bddef6"] ;
274 -> 276 ;
277 [label=<Feature 1 &le; -25.5<br/>gini = 0.469<br/>samples = 16<br/>value = [6, 10]<br/>class = Clase 1>, fillcolor="#b0d8f5"] ;
276 -> 277 ;
278 [label=<Feature 2 &le; 297.0<br/>gini = 0.48<br/>samples = 10<br/>value = [4, 6]<br/>class = Clase 1>, fillcolor="#bddef6"] ;
277 -> 278 ;
279 [label=<gini = 0.48<br/>samples = 5<br/>value = [2, 3]<br/>class = Clase 1>, fillcolor="#bddef6"] ;
278 -> 279 ;
280 [label=<gini = 0.48<br/>samples = 5<br/>value = [2, 3]<br/>class = Clase 1>, fillcolor="#bddef6"] ;
278 -> 280 ;
281 [label=<Feature 2 &le; 312.5<br/>gini = 0.444<br/>samples = 6<br/>value = [2, 4]<br/>class = Clase 1>, fillcolor="#9ccef2"] ;
277 -> 281 ;
282 [label=<gini = 0.444<br/>samples = 3<br/>value = [1, 2]<br/>class = Clase 1>, fillcolor="#9ccef2"] ;
281 -> 282 ;
283 [label=<gini = 0.444<br/>samples = 3<br/>value = [1, 2]<br/>class = Clase 1>, fillcolor="#9ccef2"] ;
281 -> 283 ;
284 [label=<gini = 0.5<br/>samples = 4<br/>value = [2, 2]<br/>class = Clase 0>, fillcolor="#ffffff"] ;
276 -> 284 ;
285 [label=<gini = 0.0<br/>samples = 2<br/>value = [0, 2]<br/>class = Clase 1>, fillcolor="#399de5"] ;
263 -> 285 ;
286 [label=<Feature 2 &le; 419.5<br/>gini = 0.498<br/>samples = 30<br/>value = [16, 14]<br/>class = Clase 0>, fillcolor="#fcefe6"] ;
262 -> 286 ;
287 [label=<Feature 2 &le; 381.5<br/>gini = 0.488<br/>samples = 19<br/>value = [11, 8]<br/>class = Clase 0>, fillcolor="#f8ddc9"] ;
286 -> 287 ;
288 [label=<Feature 2 &le; 368.5<br/>gini = 0.5<br/>samples = 8<br/>value = [4, 4]<br/>class = Clase 0>, fillcolor="#ffffff"] ;
287 -> 288 ;
289 [label=<gini = 0.48<br/>samples = 5<br/>value = [3, 2]<br/>class = Clase 0>, fillcolor="#f6d5bd"] ;
288 -> 289 ;
290 [label=<gini = 0.444<br/>samples = 3<br/>value = [1, 2]<br/>class = Clase 1>, fillcolor="#9ccef2"] ;
288 -> 290 ;
291 [label=<Feature 1 &le; -25.5<br/>gini = 0.463<br/>samples = 11<br/>value = [7, 4]<br/>class = Clase 0>, fillcolor="#f4c9aa"] ;
287 -> 291 ;
292 [label=<Feature 2 &le; 401.0<br/>gini = 0.48<br/>samples = 10<br/>value = [6, 4]<br/>class = Clase 0>, fillcolor="#f6d5bd"] ;
291 -> 292 ;
293 [label=<gini = 0.48<br/>samples = 5<br/>value = [3, 2]<br/>class = Clase 0>, fillcolor="#f6d5bd"] ;
292 -> 293 ;
294 [label=<gini = 0.48<br/>samples = 5<br/>value = [3, 2]<br/>class = Clase 0>, fillcolor="#f6d5bd"] ;
292 -> 294 ;
295 [label=<gini = 0.0<br/>samples = 1<br/>value = [1, 0]<br/>class = Clase 0>, fillcolor="#e58139"] ;
291 -> 295 ;
296 [label=<Feature 2 &le; 432.5<br/>gini = 0.496<br/>samples = 11<br/>value = [5, 6]<br/>class = Clase 1>, fillcolor="#deeffb"] ;
286 -> 296 ;
297 [label=<gini = 0.444<br/>samples = 3<br/>value = [1, 2]<br/>class = Clase 1>, fillcolor="#9ccef2"] ;
296 -> 297 ;
298 [label=<Feature 2 &le; 445.0<br/>gini = 0.5<br/>samples = 8<br/>value = [4, 4]<br/>class = Clase 0>, fillcolor="#ffffff"] ;
296 -> 298 ;
299 [label=<gini = 0.5<br/>samples = 6<br/>value = [3, 3]<br/>class = Clase 0>, fillcolor="#ffffff"] ;
298 -> 299 ;
300 [label=<gini = 0.5<br/>samples = 2<br/>value = [1, 1]<br/>class = Clase 0>, fillcolor="#ffffff"] ;
298 -> 300 ;
301 [label=<Feature 2 &le; 230.0<br/>gini = 0.494<br/>samples = 166<br/>value = [92, 74]<br/>class = Clase 0>, fillcolor="#fae6d8"] ;
261 -> 301 ;
302 [label=<Feature 2 &le; 218.5<br/>gini = 0.484<br/>samples = 17<br/>value = [7, 10]<br/>class = Clase 1>, fillcolor="#c4e2f7"] ;
301 -> 302 ;
303 [label=<gini = 0.5<br/>samples = 8<br/>value = [4, 4]<br/>class = Clase 0>, fillcolor="#ffffff"] ;
302 -> 303 ;
304 [label=<gini = 0.444<br/>samples = 9<br/>value = [3, 6]<br/>class = Clase 1>, fillcolor="#9ccef2"] ;
302 -> 304 ;
305 [label=<Feature 2 &le; 289.0<br/>gini = 0.49<br/>samples = 149<br/>value = [85, 64]<br/>class = Clase 0>, fillcolor="#f9e0ce"] ;
301 -> 305 ;
306 [label=<Feature 2 &le; 265.5<br/>gini = 0.432<br/>samples = 38<br/>value = [26, 12]<br/>class = Clase 0>, fillcolor="#f1bb94"] ;
305 -> 306 ;
307 [label=<Feature 1 &le; -23.5<br/>gini = 0.413<br/>samples = 24<br/>value = [17, 7]<br/>class = Clase 0>, fillcolor="#f0b58b"] ;
306 -> 307 ;
308 [label=<gini = 0.42<br/>samples = 10<br/>value = [7, 3]<br/>class = Clase 0>, fillcolor="#f0b78e"] ;
307 -> 308 ;
309 [label=<Feature 2 &le; 251.5<br/>gini = 0.408<br/>samples = 14<br/>value = [10, 4]<br/>class = Clase 0>, fillcolor="#efb388"] ;
307 -> 309 ;
310 [label=<gini = 0.408<br/>samples = 7<br/>value = [5, 2]<br/>class = Clase 0>, fillcolor="#efb388"] ;
309 -> 310 ;
311 [label=<gini = 0.408<br/>samples = 7<br/>value = [5, 2]<br/>class = Clase 0>, fillcolor="#efb388"] ;
309 -> 311 ;
312 [label=<Feature 2 &le; 277.0<br/>gini = 0.459<br/>samples = 14<br/>value = [9, 5]<br/>class = Clase 0>, fillcolor="#f3c7a7"] ;
306 -> 312 ;
313 [label=<gini = 0.469<br/>samples = 8<br/>value = [5, 3]<br/>class = Clase 0>, fillcolor="#f5cdb0"] ;
312 -> 313 ;
314 [label=<gini = 0.444<br/>samples = 6<br/>value = [4, 2]<br/>class = Clase 0>, fillcolor="#f2c09c"] ;
312 -> 314 ;
315 [label=<Feature 1 &le; -23.5<br/>gini = 0.498<br/>samples = 111<br/>value = [59, 52]<br/>class = Clase 0>, fillcolor="#fcf0e8"] ;
305 -> 315 ;
316 [label=<Feature 2 &le; 328.0<br/>gini = 0.49<br/>samples = 56<br/>value = [32, 24]<br/>class = Clase 0>, fillcolor="#f8e0ce"] ;
315 -> 316 ;
317 [label=<Feature 2 &le; 304.0<br/>gini = 0.484<br/>samples = 17<br/>value = [10, 7]<br/>class = Clase 0>, fillcolor="#f7d9c4"] ;
316 -> 317 ;
318 [label=<gini = 0.494<br/>samples = 9<br/>value = [5, 4]<br/>class = Clase 0>, fillcolor="#fae6d7"] ;
317 -> 318 ;
319 [label=<gini = 0.469<br/>samples = 8<br/>value = [5, 3]<br/>class = Clase 0>, fillcolor="#f5cdb0"] ;
317 -> 319 ;
320 [label=<Feature 2 &le; 376.0<br/>gini = 0.492<br/>samples = 39<br/>value = [22, 17]<br/>class = Clase 0>, fillcolor="#f9e2d2"] ;
316 -> 320 ;
321 [label=<Feature 2 &le; 352.0<br/>gini = 0.498<br/>samples = 15<br/>value = [8, 7]<br/>class = Clase 0>, fillcolor="#fcefe6"] ;
320 -> 321 ;
322 [label=<gini = 0.49<br/>samples = 7<br/>value = [4, 3]<br/>class = Clase 0>, fillcolor="#f8e0ce"] ;
321 -> 322 ;
323 [label=<gini = 0.5<br/>samples = 8<br/>value = [4, 4]<br/>class = Clase 0>, fillcolor="#ffffff"] ;
321 -> 323 ;
324 [label=<Feature 2 &le; 400.0<br/>gini = 0.486<br/>samples = 24<br/>value = [14, 10]<br/>class = Clase 0>, fillcolor="#f8dbc6"] ;
320 -> 324 ;
325 [label=<gini = 0.469<br/>samples = 8<br/>value = [5, 3]<br/>class = Clase 0>, fillcolor="#f5cdb0"] ;
324 -> 325 ;
326 [label=<Feature 2 &le; 424.0<br/>gini = 0.492<br/>samples = 16<br/>value = [9, 7]<br/>class = Clase 0>, fillcolor="#f9e3d3"] ;
324 -> 326 ;
327 [label=<gini = 0.494<br/>samples = 9<br/>value = [5, 4]<br/>class = Clase 0>, fillcolor="#fae6d7"] ;
326 -> 327 ;
328 [label=<gini = 0.49<br/>samples = 7<br/>value = [4, 3]<br/>class = Clase 0>, fillcolor="#f8e0ce"] ;
326 -> 328 ;
329 [label=<Feature 2 &le; 343.5<br/>gini = 0.5<br/>samples = 55<br/>value = [27.0, 28.0]<br/>class = Clase 1>, fillcolor="#f8fcfe"] ;
315 -> 329 ;
330 [label=<Feature 2 &le; 320.5<br/>gini = 0.492<br/>samples = 16<br/>value = [9, 7]<br/>class = Clase 0>, fillcolor="#f9e3d3"] ;
329 -> 330 ;
331 [label=<gini = 0.5<br/>samples = 8<br/>value = [4, 4]<br/>class = Clase 0>, fillcolor="#ffffff"] ;
330 -> 331 ;
332 [label=<gini = 0.469<br/>samples = 8<br/>value = [5, 3]<br/>class = Clase 0>, fillcolor="#f5cdb0"] ;
330 -> 332 ;
333 [label=<Feature 2 &le; 412.5<br/>gini = 0.497<br/>samples = 39<br/>value = [18, 21]<br/>class = Clase 1>, fillcolor="#e3f1fb"] ;
329 -> 333 ;
334 [label=<Feature 2 &le; 366.5<br/>gini = 0.493<br/>samples = 25<br/>value = [11.0, 14.0]<br/>class = Clase 1>, fillcolor="#d5eaf9"] ;
333 -> 334 ;
335 [label=<gini = 0.49<br/>samples = 7<br/>value = [3, 4]<br/>class = Clase 1>, fillcolor="#cee6f8"] ;
334 -> 335 ;
336 [label=<Feature 2 &le; 389.5<br/>gini = 0.494<br/>samples = 18<br/>value = [8, 10]<br/>class = Clase 1>, fillcolor="#d7ebfa"] ;
334 -> 336 ;
337 [label=<gini = 0.494<br/>samples = 9<br/>value = [4, 5]<br/>class = Clase 1>, fillcolor="#d7ebfa"] ;
336 -> 337 ;
338 [label=<gini = 0.494<br/>samples = 9<br/>value = [4, 5]<br/>class = Clase 1>, fillcolor="#d7ebfa"] ;
336 -> 338 ;
339 [label=<Feature 2 &le; 435.5<br/>gini = 0.5<br/>samples = 14<br/>value = [7, 7]<br/>class = Clase 0>, fillcolor="#ffffff"] ;
333 -> 339 ;
340 [label=<gini = 0.49<br/>samples = 7<br/>value = [4, 3]<br/>class = Clase 0>, fillcolor="#f8e0ce"] ;
339 -> 340 ;
341 [label=<gini = 0.49<br/>samples = 7<br/>value = [3, 4]<br/>class = Clase 1>, fillcolor="#cee6f8"] ;
339 -> 341 ;
342 [label=<Feature 2 &le; 324.0<br/>gini = 0.447<br/>samples = 190<br/>value = [126.0, 64.0]<br/>class = Clase 0>, fillcolor="#f2c19e"] ;
258 -> 342 ;
343 [label=<Feature 1 &le; -20.5<br/>gini = 0.325<br/>samples = 88<br/>value = [70, 18]<br/>class = Clase 0>, fillcolor="#eca16c"] ;
342 -> 343 ;
344 [label=<Feature 2 &le; 313.0<br/>gini = 0.278<br/>samples = 60<br/>value = [50, 10]<br/>class = Clase 0>, fillcolor="#ea9a61"] ;
343 -> 344 ;
345 [label=<Feature 2 &le; 216.5<br/>gini = 0.293<br/>samples = 56<br/>value = [46, 10]<br/>class = Clase 0>, fillcolor="#eb9c64"] ;
344 -> 345 ;
346 [label=<gini = 0.408<br/>samples = 7<br/>value = [5, 2]<br/>class = Clase 0>, fillcolor="#efb388"] ;
345 -> 346 ;
347 [label=<Feature 2 &le; 248.5<br/>gini = 0.273<br/>samples = 49<br/>value = [41.0, 8.0]<br/>class = Clase 0>, fillcolor="#ea9a60"] ;
345 -> 347 ;
348 [label=<Feature 1 &le; -21.5<br/>gini = 0.142<br/>samples = 13<br/>value = [12, 1]<br/>class = Clase 0>, fillcolor="#e78c49"] ;
347 -> 348 ;
349 [label=<gini = 0.0<br/>samples = 6<br/>value = [6, 0]<br/>class = Clase 0>, fillcolor="#e58139"] ;
348 -> 349 ;
350 [label=<Feature 2 &le; 227.5<br/>gini = 0.245<br/>samples = 7<br/>value = [6, 1]<br/>class = Clase 0>, fillcolor="#e9965a"] ;
348 -> 350 ;
351 [label=<gini = 0.0<br/>samples = 4<br/>value = [4, 0]<br/>class = Clase 0>, fillcolor="#e58139"] ;
350 -> 351 ;
352 [label=<gini = 0.444<br/>samples = 3<br/>value = [2, 1]<br/>class = Clase 0>, fillcolor="#f2c09c"] ;
350 -> 352 ;
353 [label=<Feature 1 &le; -21.5<br/>gini = 0.313<br/>samples = 36<br/>value = [29, 7]<br/>class = Clase 0>, fillcolor="#eb9f69"] ;
347 -> 353 ;
354 [label=<Feature 2 &le; 293.0<br/>gini = 0.278<br/>samples = 24<br/>value = [20, 4]<br/>class = Clase 0>, fillcolor="#ea9a61"] ;
353 -> 354 ;
355 [label=<Feature 2 &le; 271.0<br/>gini = 0.219<br/>samples = 16<br/>value = [14, 2]<br/>class = Clase 0>, fillcolor="#e99355"] ;
354 -> 355 ;
356 [label=<gini = 0.219<br/>samples = 8<br/>value = [7, 1]<br/>class = Clase 0>, fillcolor="#e99355"] ;
355 -> 356 ;
357 [label=<gini = 0.219<br/>samples = 8<br/>value = [7, 1]<br/>class = Clase 0>, fillcolor="#e99355"] ;
355 -> 357 ;
358 [label=<gini = 0.375<br/>samples = 8<br/>value = [6, 2]<br/>class = Clase 0>, fillcolor="#eeab7b"] ;
354 -> 358 ;
359 [label=<Feature 2 &le; 269.5<br/>gini = 0.375<br/>samples = 12<br/>value = [9, 3]<br/>class = Clase 0>, fillcolor="#eeab7b"] ;
353 -> 359 ;
360 [label=<gini = 0.32<br/>samples = 5<br/>value = [4, 1]<br/>class = Clase 0>, fillcolor="#eca06a"] ;
359 -> 360 ;
361 [label=<Feature 2 &le; 290.5<br/>gini = 0.408<br/>samples = 7<br/>value = [5, 2]<br/>class = Clase 0>, fillcolor="#efb388"] ;
359 -> 361 ;
362 [label=<gini = 0.444<br/>samples = 3<br/>value = [2, 1]<br/>class = Clase 0>, fillcolor="#f2c09c"] ;
361 -> 362 ;
363 [label=<gini = 0.375<br/>samples = 4<br/>value = [3, 1]<br/>class = Clase 0>, fillcolor="#eeab7b"] ;
361 -> 363 ;
364 [label=<gini = 0.0<br/>samples = 4<br/>value = [4, 0]<br/>class = Clase 0>, fillcolor="#e58139"] ;
344 -> 364 ;
365 [label=<Feature 2 &le; 210.0<br/>gini = 0.408<br/>samples = 28<br/>value = [20, 8]<br/>class = Clase 0>, fillcolor="#efb388"] ;
343 -> 365 ;
366 [label=<gini = 0.0<br/>samples = 4<br/>value = [4, 0]<br/>class = Clase 0>, fillcolor="#e58139"] ;
365 -> 366 ;
367 [label=<Feature 2 &le; 230.0<br/>gini = 0.444<br/>samples = 24<br/>value = [16, 8]<br/>class = Clase 0>, fillcolor="#f2c09c"] ;
365 -> 367 ;
368 [label=<gini = 0.375<br/>samples = 4<br/>value = [3, 1]<br/>class = Clase 0>, fillcolor="#eeab7b"] ;
367 -> 368 ;
369 [label=<Feature 2 &le; 250.0<br/>gini = 0.455<br/>samples = 20<br/>value = [13, 7]<br/>class = Clase 0>, fillcolor="#f3c5a4"] ;
367 -> 369 ;
370 [label=<gini = 0.48<br/>samples = 5<br/>value = [3, 2]<br/>class = Clase 0>, fillcolor="#f6d5bd"] ;
369 -> 370 ;
371 [label=<Feature 2 &le; 310.0<br/>gini = 0.444<br/>samples = 15<br/>value = [10, 5]<br/>class = Clase 0>, fillcolor="#f2c09c"] ;
369 -> 371 ;
372 [label=<Feature 2 &le; 290.0<br/>gini = 0.42<br/>samples = 10<br/>value = [7, 3]<br/>class = Clase 0>, fillcolor="#f0b78e"] ;
371 -> 372 ;
373 [label=<Feature 2 &le; 270.0<br/>gini = 0.444<br/>samples = 6<br/>value = [4, 2]<br/>class = Clase 0>, fillcolor="#f2c09c"] ;
372 -> 373 ;
374 [label=<gini = 0.444<br/>samples = 3<br/>value = [2, 1]<br/>class = Clase 0>, fillcolor="#f2c09c"] ;
373 -> 374 ;
375 [label=<gini = 0.444<br/>samples = 3<br/>value = [2, 1]<br/>class = Clase 0>, fillcolor="#f2c09c"] ;
373 -> 375 ;
376 [label=<gini = 0.375<br/>samples = 4<br/>value = [3, 1]<br/>class = Clase 0>, fillcolor="#eeab7b"] ;
372 -> 376 ;
377 [label=<gini = 0.48<br/>samples = 5<br/>value = [3, 2]<br/>class = Clase 0>, fillcolor="#f6d5bd"] ;
371 -> 377 ;
378 [label=<Feature 2 &le; 431.5<br/>gini = 0.495<br/>samples = 102<br/>value = [56.0, 46.0]<br/>class = Clase 0>, fillcolor="#fae8dc"] ;
342 -> 378 ;
379 [label=<Feature 1 &le; -21.5<br/>gini = 0.485<br/>samples = 82<br/>value = [48, 34]<br/>class = Clase 0>, fillcolor="#f7dac5"] ;
378 -> 379 ;
380 [label=<Feature 2 &le; 359.0<br/>gini = 0.5<br/>samples = 37<br/>value = [18, 19]<br/>class = Clase 1>, fillcolor="#f5fafe"] ;
379 -> 380 ;
381 [label=<Feature 2 &le; 337.0<br/>gini = 0.498<br/>samples = 15<br/>value = [7, 8]<br/>class = Clase 1>, fillcolor="#e6f3fc"] ;
380 -> 381 ;
382 [label=<gini = 0.5<br/>samples = 8<br/>value = [4, 4]<br/>class = Clase 0>, fillcolor="#ffffff"] ;
381 -> 382 ;
383 [label=<gini = 0.49<br/>samples = 7<br/>value = [3, 4]<br/>class = Clase 1>, fillcolor="#cee6f8"] ;
381 -> 383 ;
384 [label=<Feature 2 &le; 381.0<br/>gini = 0.5<br/>samples = 22<br/>value = [11, 11]<br/>class = Clase 0>, fillcolor="#ffffff"] ;
380 -> 384 ;
385 [label=<gini = 0.49<br/>samples = 7<br/>value = [4, 3]<br/>class = Clase 0>, fillcolor="#f8e0ce"] ;
384 -> 385 ;
386 [label=<Feature 2 &le; 403.0<br/>gini = 0.498<br/>samples = 15<br/>value = [7, 8]<br/>class = Clase 1>, fillcolor="#e6f3fc"] ;
384 -> 386 ;
387 [label=<gini = 0.49<br/>samples = 7<br/>value = [3, 4]<br/>class = Clase 1>, fillcolor="#cee6f8"] ;
386 -> 387 ;
388 [label=<gini = 0.5<br/>samples = 8<br/>value = [4, 4]<br/>class = Clase 0>, fillcolor="#ffffff"] ;
386 -> 388 ;
389 [label=<Feature 1 &le; -20.5<br/>gini = 0.444<br/>samples = 45<br/>value = [30, 15]<br/>class = Clase 0>, fillcolor="#f2c09c"] ;
379 -> 389 ;
390 [label=<Feature 2 &le; 395.5<br/>gini = 0.397<br/>samples = 22<br/>value = [16, 6]<br/>class = Clase 0>, fillcolor="#efb083"] ;
389 -> 390 ;
391 [label=<Feature 2 &le; 374.5<br/>gini = 0.355<br/>samples = 13<br/>value = [10, 3]<br/>class = Clase 0>, fillcolor="#eda774"] ;
390 -> 391 ;
392 [label=<Feature 2 &le; 353.5<br/>gini = 0.375<br/>samples = 8<br/>value = [6, 2]<br/>class = Clase 0>, fillcolor="#eeab7b"] ;
391 -> 392 ;
393 [label=<gini = 0.375<br/>samples = 4<br/>value = [3, 1]<br/>class = Clase 0>, fillcolor="#eeab7b"] ;
392 -> 393 ;
394 [label=<gini = 0.375<br/>samples = 4<br/>value = [3, 1]<br/>class = Clase 0>, fillcolor="#eeab7b"] ;
392 -> 394 ;
395 [label=<gini = 0.32<br/>samples = 5<br/>value = [4, 1]<br/>class = Clase 0>, fillcolor="#eca06a"] ;
391 -> 395 ;
396 [label=<Feature 2 &le; 416.5<br/>gini = 0.444<br/>samples = 9<br/>value = [6, 3]<br/>class = Clase 0>, fillcolor="#f2c09c"] ;
390 -> 396 ;
397 [label=<gini = 0.48<br/>samples = 5<br/>value = [3, 2]<br/>class = Clase 0>, fillcolor="#f6d5bd"] ;
396 -> 397 ;
398 [label=<gini = 0.375<br/>samples = 4<br/>value = [3, 1]<br/>class = Clase 0>, fillcolor="#eeab7b"] ;
396 -> 398 ;
399 [label=<Feature 2 &le; 390.0<br/>gini = 0.476<br/>samples = 23<br/>value = [14, 9]<br/>class = Clase 0>, fillcolor="#f6d2b8"] ;
389 -> 399 ;
400 [label=<Feature 2 &le; 350.0<br/>gini = 0.48<br/>samples = 15<br/>value = [9, 6]<br/>class = Clase 0>, fillcolor="#f6d5bd"] ;
399 -> 400 ;
401 [label=<gini = 0.48<br/>samples = 5<br/>value = [3, 2]<br/>class = Clase 0>, fillcolor="#f6d5bd"] ;
400 -> 401 ;
402 [label=<Feature 2 &le; 370.0<br/>gini = 0.48<br/>samples = 10<br/>value = [6, 4]<br/>class = Clase 0>, fillcolor="#f6d5bd"] ;
400 -> 402 ;
403 [label=<gini = 0.48<br/>samples = 5<br/>value = [3, 2]<br/>class = Clase 0>, fillcolor="#f6d5bd"] ;
402 -> 403 ;
404 [label=<gini = 0.48<br/>samples = 5<br/>value = [3, 2]<br/>class = Clase 0>, fillcolor="#f6d5bd"] ;
402 -> 404 ;
405 [label=<Feature 2 &le; 410.0<br/>gini = 0.469<br/>samples = 8<br/>value = [5, 3]<br/>class = Clase 0>, fillcolor="#f5cdb0"] ;
399 -> 405 ;
406 [label=<gini = 0.444<br/>samples = 3<br/>value = [2, 1]<br/>class = Clase 0>, fillcolor="#f2c09c"] ;
405 -> 406 ;
407 [label=<gini = 0.48<br/>samples = 5<br/>value = [3, 2]<br/>class = Clase 0>, fillcolor="#f6d5bd"] ;
405 -> 407 ;
408 [label=<Feature 1 &le; -21.5<br/>gini = 0.48<br/>samples = 20<br/>value = [8, 12]<br/>class = Clase 1>, fillcolor="#bddef6"] ;
378 -> 408 ;
409 [label=<Feature 2 &le; 447.0<br/>gini = 0.497<br/>samples = 13<br/>value = [6, 7]<br/>class = Clase 1>, fillcolor="#e3f1fb"] ;
408 -> 409 ;
410 [label=<gini = 0.49<br/>samples = 7<br/>value = [3, 4]<br/>class = Clase 1>, fillcolor="#cee6f8"] ;
409 -> 410 ;
411 [label=<gini = 0.5<br/>samples = 6<br/>value = [3, 3]<br/>class = Clase 0>, fillcolor="#ffffff"] ;
409 -> 411 ;
412 [label=<Feature 1 &le; -20.5<br/>gini = 0.408<br/>samples = 7<br/>value = [2, 5]<br/>class = Clase 1>, fillcolor="#88c4ef"] ;
408 -> 412 ;
413 [label=<gini = 0.444<br/>samples = 3<br/>value = [1, 2]<br/>class = Clase 1>, fillcolor="#9ccef2"] ;
412 -> 413 ;
414 [label=<gini = 0.375<br/>samples = 4<br/>value = [1, 3]<br/>class = Clase 1>, fillcolor="#7bbeee"] ;
412 -> 414 ;
415 [label=<Feature 1 &le; -15.5<br/>gini = 0.213<br/>samples = 1302<br/>value = [1144, 158]<br/>class = Clase 0>, fillcolor="#e99254"] ;
147 -> 415 ;
416 [label=<Feature 2 &le; 193.0<br/>gini = 0.36<br/>samples = 446<br/>value = [341, 105]<br/>class = Clase 0>, fillcolor="#eda876"] ;
415 -> 416 ;
417 [label=<Feature 2 &le; 175.5<br/>gini = 0.489<br/>samples = 80<br/>value = [34, 46]<br/>class = Clase 1>, fillcolor="#cbe5f8"] ;
416 -> 417 ;
418 [label=<Feature 1 &le; -18.5<br/>gini = 0.462<br/>samples = 58<br/>value = [21, 37]<br/>class = Clase 1>, fillcolor="#a9d5f4"] ;
417 -> 418 ;
419 [label=<Feature 2 &le; 158.5<br/>gini = 0.5<br/>samples = 14<br/>value = [7, 7]<br/>class = Clase 0>, fillcolor="#ffffff"] ;
418 -> 419 ;
420 [label=<gini = 0.5<br/>samples = 8<br/>value = [4, 4]<br/>class = Clase 0>, fillcolor="#ffffff"] ;
419 -> 420 ;
421 [label=<gini = 0.5<br/>samples = 6<br/>value = [3, 3]<br/>class = Clase 0>, fillcolor="#ffffff"] ;
419 -> 421 ;
422 [label=<Feature 2 &le; 139.5<br/>gini = 0.434<br/>samples = 44<br/>value = [14.0, 30.0]<br/>class = Clase 1>, fillcolor="#95cbf1"] ;
418 -> 422 ;
423 [label=<gini = 0.0<br/>samples = 2<br/>value = [0, 2]<br/>class = Clase 1>, fillcolor="#399de5"] ;
422 -> 423 ;
424 [label=<Feature 2 &le; 141.0<br/>gini = 0.444<br/>samples = 42<br/>value = [14, 28]<br/>class = Clase 1>, fillcolor="#9ccef2"] ;
422 -> 424 ;
425 [label=<gini = 0.49<br/>samples = 7<br/>value = [3, 4]<br/>class = Clase 1>, fillcolor="#cee6f8"] ;
424 -> 425 ;
426 [label=<Feature 2 &le; 158.0<br/>gini = 0.431<br/>samples = 35<br/>value = [11, 24]<br/>class = Clase 1>, fillcolor="#94caf1"] ;
424 -> 426 ;
427 [label=<Feature 2 &le; 149.0<br/>gini = 0.401<br/>samples = 18<br/>value = [5, 13]<br/>class = Clase 1>, fillcolor="#85c3ef"] ;
426 -> 427 ;
428 [label=<gini = 0.375<br/>samples = 8<br/>value = [2, 6]<br/>class = Clase 1>, fillcolor="#7bbeee"] ;
427 -> 428 ;
429 [label=<Feature 1 &le; -16.5<br/>gini = 0.42<br/>samples = 10<br/>value = [3, 7]<br/>class = Clase 1>, fillcolor="#8ec7f0"] ;
427 -> 429 ;
430 [label=<gini = 0.444<br/>samples = 3<br/>value = [1, 2]<br/>class = Clase 1>, fillcolor="#9ccef2"] ;
429 -> 430 ;
431 [label=<gini = 0.408<br/>samples = 7<br/>value = [2, 5]<br/>class = Clase 1>, fillcolor="#88c4ef"] ;
429 -> 431 ;
432 [label=<Feature 2 &le; 166.0<br/>gini = 0.457<br/>samples = 17<br/>value = [6, 11]<br/>class = Clase 1>, fillcolor="#a5d2f3"] ;
426 -> 432 ;
433 [label=<gini = 0.49<br/>samples = 7<br/>value = [3, 4]<br/>class = Clase 1>, fillcolor="#cee6f8"] ;
432 -> 433 ;
434 [label=<Feature 2 &le; 172.5<br/>gini = 0.42<br/>samples = 10<br/>value = [3, 7]<br/>class = Clase 1>, fillcolor="#8ec7f0"] ;
432 -> 434 ;
435 [label=<gini = 0.408<br/>samples = 7<br/>value = [2, 5]<br/>class = Clase 1>, fillcolor="#88c4ef"] ;
434 -> 435 ;
436 [label=<gini = 0.444<br/>samples = 3<br/>value = [1, 2]<br/>class = Clase 1>, fillcolor="#9ccef2"] ;
434 -> 436 ;
437 [label=<Feature 2 &le; 189.0<br/>gini = 0.483<br/>samples = 22<br/>value = [13, 9]<br/>class = Clase 0>, fillcolor="#f7d8c2"] ;
417 -> 437 ;
438 [label=<Feature 2 &le; 182.5<br/>gini = 0.472<br/>samples = 21<br/>value = [13, 8]<br/>class = Clase 0>, fillcolor="#f5cfb3"] ;
437 -> 438 ;
439 [label=<gini = 0.32<br/>samples = 5<br/>value = [4, 1]<br/>class = Clase 0>, fillcolor="#eca06a"] ;
438 -> 439 ;
440 [label=<Feature 2 &le; 187.5<br/>gini = 0.492<br/>samples = 16<br/>value = [9, 7]<br/>class = Clase 0>, fillcolor="#f9e3d3"] ;
438 -> 440 ;
441 [label=<gini = 0.49<br/>samples = 7<br/>value = [4, 3]<br/>class = Clase 0>, fillcolor="#f8e0ce"] ;
440 -> 441 ;
442 [label=<gini = 0.494<br/>samples = 9<br/>value = [5, 4]<br/>class = Clase 0>, fillcolor="#fae6d7"] ;
440 -> 442 ;
443 [label=<gini = 0.0<br/>samples = 1<br/>value = [0, 1]<br/>class = Clase 1>, fillcolor="#399de5"] ;
437 -> 443 ;
444 [label=<Feature 2 &le; 378.5<br/>gini = 0.27<br/>samples = 366<br/>value = [307.0, 59.0]<br/>class = Clase 0>, fillcolor="#ea995f"] ;
416 -> 444 ;
445 [label=<Feature 1 &le; -16.5<br/>gini = 0.217<br/>samples = 266<br/>value = [233, 33]<br/>class = Clase 0>, fillcolor="#e99355"] ;
444 -> 445 ;
446 [label=<Feature 1 &le; -18.5<br/>gini = 0.275<br/>samples = 182<br/>value = [152, 30]<br/>class = Clase 0>, fillcolor="#ea9a60"] ;
445 -> 446 ;
447 [label=<Feature 2 &le; 253.5<br/>gini = 0.221<br/>samples = 79<br/>value = [69, 10]<br/>class = Clase 0>, fillcolor="#e99356"] ;
446 -> 447 ;
448 [label=<Feature 2 &le; 215.5<br/>gini = 0.34<br/>samples = 23<br/>value = [18, 5]<br/>class = Clase 0>, fillcolor="#eca470"] ;
447 -> 448 ;
449 [label=<gini = 0.219<br/>samples = 8<br/>value = [7, 1]<br/>class = Clase 0>, fillcolor="#e99355"] ;
448 -> 449 ;
450 [label=<Feature 2 &le; 234.5<br/>gini = 0.391<br/>samples = 15<br/>value = [11, 4]<br/>class = Clase 0>, fillcolor="#eeaf81"] ;
448 -> 450 ;
451 [label=<gini = 0.444<br/>samples = 6<br/>value = [4, 2]<br/>class = Clase 0>, fillcolor="#f2c09c"] ;
450 -> 451 ;
452 [label=<gini = 0.346<br/>samples = 9<br/>value = [7, 2]<br/>class = Clase 0>, fillcolor="#eca572"] ;
450 -> 452 ;
453 [label=<Feature 2 &le; 329.5<br/>gini = 0.163<br/>samples = 56<br/>value = [51, 5]<br/>class = Clase 0>, fillcolor="#e88d4c"] ;
447 -> 453 ;
454 [label=<Feature 2 &le; 272.5<br/>gini = 0.202<br/>samples = 35<br/>value = [31, 4]<br/>class = Clase 0>, fillcolor="#e89153"] ;
453 -> 454 ;
455 [label=<gini = 0.219<br/>samples = 8<br/>value = [7, 1]<br/>class = Clase 0>, fillcolor="#e99355"] ;
454 -> 455 ;
456 [label=<Feature 2 &le; 291.5<br/>gini = 0.198<br/>samples = 27<br/>value = [24, 3]<br/>class = Clase 0>, fillcolor="#e89152"] ;
454 -> 456 ;
457 [label=<gini = 0.198<br/>samples = 9<br/>value = [8, 1]<br/>class = Clase 0>, fillcolor="#e89152"] ;
456 -> 457 ;
458 [label=<Feature 2 &le; 310.5<br/>gini = 0.198<br/>samples = 18<br/>value = [16, 2]<br/>class = Clase 0>, fillcolor="#e89152"] ;
456 -> 458 ;
459 [label=<gini = 0.198<br/>samples = 9<br/>value = [8, 1]<br/>class = Clase 0>, fillcolor="#e89152"] ;
458 -> 459 ;
460 [label=<gini = 0.198<br/>samples = 9<br/>value = [8, 1]<br/>class = Clase 0>, fillcolor="#e89152"] ;
458 -> 460 ;
461 [label=<Feature 2 &le; 367.5<br/>gini = 0.091<br/>samples = 21<br/>value = [20, 1]<br/>class = Clase 0>, fillcolor="#e68743"] ;
453 -> 461 ;
462 [label=<gini = 0.0<br/>samples = 13<br/>value = [13, 0]<br/>class = Clase 0>, fillcolor="#e58139"] ;
461 -> 462 ;
463 [label=<gini = 0.219<br/>samples = 8<br/>value = [7, 1]<br/>class = Clase 0>, fillcolor="#e99355"] ;
461 -> 463 ;
464 [label=<Feature 2 &le; 280.5<br/>gini = 0.313<br/>samples = 103<br/>value = [83, 20]<br/>class = Clase 0>, fillcolor="#eb9f69"] ;
446 -> 464 ;
465 [label=<Feature 1 &le; -17.5<br/>gini = 0.165<br/>samples = 44<br/>value = [40, 4]<br/>class = Clase 0>, fillcolor="#e88e4d"] ;
464 -> 465 ;
466 [label=<Feature 2 &le; 241.0<br/>gini = 0.225<br/>samples = 31<br/>value = [27, 4]<br/>class = Clase 0>, fillcolor="#e99456"] ;
465 -> 466 ;
467 [label=<Feature 2 &le; 205.0<br/>gini = 0.245<br/>samples = 21<br/>value = [18, 3]<br/>class = Clase 0>, fillcolor="#e9965a"] ;
466 -> 467 ;
468 [label=<gini = 0.245<br/>samples = 7<br/>value = [6, 1]<br/>class = Clase 0>, fillcolor="#e9965a"] ;
467 -> 468 ;
469 [label=<Feature 2 &le; 223.0<br/>gini = 0.245<br/>samples = 14<br/>value = [12, 2]<br/>class = Clase 0>, fillcolor="#e9965a"] ;
467 -> 469 ;
470 [label=<gini = 0.245<br/>samples = 7<br/>value = [6, 1]<br/>class = Clase 0>, fillcolor="#e9965a"] ;
469 -> 470 ;
471 [label=<gini = 0.245<br/>samples = 7<br/>value = [6, 1]<br/>class = Clase 0>, fillcolor="#e9965a"] ;
469 -> 471 ;
472 [label=<Feature 2 &le; 259.0<br/>gini = 0.18<br/>samples = 10<br/>value = [9, 1]<br/>class = Clase 0>, fillcolor="#e88f4f"] ;
466 -> 472 ;
473 [label=<gini = 0.0<br/>samples = 4<br/>value = [4, 0]<br/>class = Clase 0>, fillcolor="#e58139"] ;
472 -> 473 ;
474 [label=<gini = 0.278<br/>samples = 6<br/>value = [5, 1]<br/>class = Clase 0>, fillcolor="#ea9a61"] ;
472 -> 474 ;
475 [label=<gini = 0.0<br/>samples = 13<br/>value = [13, 0]<br/>class = Clase 0>, fillcolor="#e58139"] ;
465 -> 475 ;
476 [label=<Feature 1 &le; -17.5<br/>gini = 0.395<br/>samples = 59<br/>value = [43, 16]<br/>class = Clase 0>, fillcolor="#efb083"] ;
464 -> 476 ;
477 [label=<Feature 2 &le; 367.0<br/>gini = 0.363<br/>samples = 42<br/>value = [32, 10]<br/>class = Clase 0>, fillcolor="#eda877"] ;
476 -> 477 ;
478 [label=<Feature 2 &le; 331.0<br/>gini = 0.389<br/>samples = 34<br/>value = [25, 9]<br/>class = Clase 0>, fillcolor="#eeae80"] ;
477 -> 478 ;
479 [label=<Feature 2 &le; 295.0<br/>gini = 0.363<br/>samples = 21<br/>value = [16, 5]<br/>class = Clase 0>, fillcolor="#eda877"] ;
478 -> 479 ;
480 [label=<gini = 0.375<br/>samples = 8<br/>value = [6, 2]<br/>class = Clase 0>, fillcolor="#eeab7b"] ;
479 -> 480 ;
481 [label=<Feature 2 &le; 313.0<br/>gini = 0.355<br/>samples = 13<br/>value = [10, 3]<br/>class = Clase 0>, fillcolor="#eda774"] ;
479 -> 481 ;
482 [label=<gini = 0.32<br/>samples = 5<br/>value = [4, 1]<br/>class = Clase 0>, fillcolor="#eca06a"] ;
481 -> 482 ;
483 [label=<gini = 0.375<br/>samples = 8<br/>value = [6, 2]<br/>class = Clase 0>, fillcolor="#eeab7b"] ;
481 -> 483 ;
484 [label=<Feature 2 &le; 349.0<br/>gini = 0.426<br/>samples = 13<br/>value = [9, 4]<br/>class = Clase 0>, fillcolor="#f1b991"] ;
478 -> 484 ;
485 [label=<gini = 0.408<br/>samples = 7<br/>value = [5, 2]<br/>class = Clase 0>, fillcolor="#efb388"] ;
484 -> 485 ;
486 [label=<gini = 0.444<br/>samples = 6<br/>value = [4, 2]<br/>class = Clase 0>, fillcolor="#f2c09c"] ;
484 -> 486 ;
487 [label=<gini = 0.219<br/>samples = 8<br/>value = [7, 1]<br/>class = Clase 0>, fillcolor="#e99355"] ;
477 -> 487 ;
488 [label=<Feature 2 &le; 351.5<br/>gini = 0.457<br/>samples = 17<br/>value = [11, 6]<br/>class = Clase 0>, fillcolor="#f3c6a5"] ;
476 -> 488 ;
489 [label=<Feature 2 &le; 300.5<br/>gini = 0.444<br/>samples = 12<br/>value = [8, 4]<br/>class = Clase 0>, fillcolor="#f2c09c"] ;
488 -> 489 ;
490 [label=<gini = 0.444<br/>samples = 3<br/>value = [2, 1]<br/>class = Clase 0>, fillcolor="#f2c09c"] ;
489 -> 490 ;
491 [label=<Feature 2 &le; 317.5<br/>gini = 0.444<br/>samples = 9<br/>value = [6, 3]<br/>class = Clase 0>, fillcolor="#f2c09c"] ;
489 -> 491 ;
492 [label=<gini = 0.444<br/>samples = 3<br/>value = [2, 1]<br/>class = Clase 0>, fillcolor="#f2c09c"] ;
491 -> 492 ;
493 [label=<Feature 2 &le; 334.5<br/>gini = 0.444<br/>samples = 6<br/>value = [4, 2]<br/>class = Clase 0>, fillcolor="#f2c09c"] ;
491 -> 493 ;
494 [label=<gini = 0.444<br/>samples = 3<br/>value = [2, 1]<br/>class = Clase 0>, fillcolor="#f2c09c"] ;
493 -> 494 ;
495 [label=<gini = 0.444<br/>samples = 3<br/>value = [2, 1]<br/>class = Clase 0>, fillcolor="#f2c09c"] ;
493 -> 495 ;
496 [label=<Feature 2 &le; 368.5<br/>gini = 0.48<br/>samples = 5<br/>value = [3, 2]<br/>class = Clase 0>, fillcolor="#f6d5bd"] ;
488 -> 496 ;
497 [label=<gini = 0.5<br/>samples = 2<br/>value = [1, 1]<br/>class = Clase 0>, fillcolor="#ffffff"] ;
496 -> 497 ;
498 [label=<gini = 0.444<br/>samples = 3<br/>value = [2, 1]<br/>class = Clase 0>, fillcolor="#f2c09c"] ;
496 -> 498 ;
499 [label=<Feature 2 &le; 228.0<br/>gini = 0.069<br/>samples = 84<br/>value = [81, 3]<br/>class = Clase 0>, fillcolor="#e68640"] ;
445 -> 499 ;
500 [label=<Feature 2 &le; 212.0<br/>gini = 0.231<br/>samples = 15<br/>value = [13, 2]<br/>class = Clase 0>, fillcolor="#e99457"] ;
499 -> 500 ;
501 [label=<gini = 0.198<br/>samples = 9<br/>value = [8, 1]<br/>class = Clase 0>, fillcolor="#e89152"] ;
500 -> 501 ;
502 [label=<gini = 0.278<br/>samples = 6<br/>value = [5, 1]<br/>class = Clase 0>, fillcolor="#ea9a61"] ;
500 -> 502 ;
503 [label=<Feature 2 &le; 356.0<br/>gini = 0.029<br/>samples = 69<br/>value = [68, 1]<br/>class = Clase 0>, fillcolor="#e5833c"] ;
499 -> 503 ;
504 [label=<gini = 0.0<br/>samples = 63<br/>value = [63, 0]<br/>class = Clase 0>, fillcolor="#e58139"] ;
503 -> 504 ;
505 [label=<gini = 0.278<br/>samples = 6<br/>value = [5, 1]<br/>class = Clase 0>, fillcolor="#ea9a61"] ;
503 -> 505 ;
506 [label=<Feature 1 &le; -18.5<br/>gini = 0.385<br/>samples = 100<br/>value = [74, 26]<br/>class = Clase 0>, fillcolor="#eead7f"] ;
444 -> 506 ;
507 [label=<Feature 2 &le; 424.5<br/>gini = 0.271<br/>samples = 31<br/>value = [26, 5]<br/>class = Clase 0>, fillcolor="#ea995f"] ;
506 -> 507 ;
508 [label=<Feature 2 &le; 405.5<br/>gini = 0.231<br/>samples = 15<br/>value = [13, 2]<br/>class = Clase 0>, fillcolor="#e99457"] ;
507 -> 508 ;
509 [label=<gini = 0.245<br/>samples = 7<br/>value = [6, 1]<br/>class = Clase 0>, fillcolor="#e9965a"] ;
508 -> 509 ;
510 [label=<gini = 0.219<br/>samples = 8<br/>value = [7, 1]<br/>class = Clase 0>, fillcolor="#e99355"] ;
508 -> 510 ;
511 [label=<Feature 2 &le; 443.5<br/>gini = 0.305<br/>samples = 16<br/>value = [13, 3]<br/>class = Clase 0>, fillcolor="#eb9e67"] ;
507 -> 511 ;
512 [label=<gini = 0.278<br/>samples = 6<br/>value = [5, 1]<br/>class = Clase 0>, fillcolor="#ea9a61"] ;
511 -> 512 ;
513 [label=<gini = 0.32<br/>samples = 10<br/>value = [8, 2]<br/>class = Clase 0>, fillcolor="#eca06a"] ;
511 -> 513 ;
514 [label=<Feature 2 &le; 444.5<br/>gini = 0.423<br/>samples = 69<br/>value = [48, 21]<br/>class = Clase 0>, fillcolor="#f0b890"] ;
506 -> 514 ;
515 [label=<Feature 1 &le; -16.5<br/>gini = 0.395<br/>samples = 59<br/>value = [43, 16]<br/>class = Clase 0>, fillcolor="#efb083"] ;
514 -> 515 ;
516 [label=<Feature 1 &le; -17.5<br/>gini = 0.434<br/>samples = 22<br/>value = [15.0, 7.0]<br/>class = Clase 0>, fillcolor="#f1bc95"] ;
515 -> 516 ;
517 [label=<Feature 2 &le; 421.0<br/>gini = 0.346<br/>samples = 18<br/>value = [14, 4]<br/>class = Clase 0>, fillcolor="#eca572"] ;
516 -> 517 ;
518 [label=<Feature 2 &le; 403.0<br/>gini = 0.298<br/>samples = 11<br/>value = [9, 2]<br/>class = Clase 0>, fillcolor="#eb9d65"] ;
517 -> 518 ;
519 [label=<gini = 0.278<br/>samples = 6<br/>value = [5, 1]<br/>class = Clase 0>, fillcolor="#ea9a61"] ;
518 -> 519 ;
520 [label=<gini = 0.32<br/>samples = 5<br/>value = [4, 1]<br/>class = Clase 0>, fillcolor="#eca06a"] ;
518 -> 520 ;
521 [label=<gini = 0.408<br/>samples = 7<br/>value = [5, 2]<br/>class = Clase 0>, fillcolor="#efb388"] ;
517 -> 521 ;
522 [label=<Feature 2 &le; 402.5<br/>gini = 0.375<br/>samples = 4<br/>value = [1, 3]<br/>class = Clase 1>, fillcolor="#7bbeee"] ;
516 -> 522 ;
523 [label=<gini = 0.0<br/>samples = 1<br/>value = [0, 1]<br/>class = Clase 1>, fillcolor="#399de5"] ;
522 -> 523 ;
524 [label=<gini = 0.444<br/>samples = 3<br/>value = [1, 2]<br/>class = Clase 1>, fillcolor="#9ccef2"] ;
522 -> 524 ;
525 [label=<Feature 2 &le; 436.0<br/>gini = 0.368<br/>samples = 37<br/>value = [28, 9]<br/>class = Clase 0>, fillcolor="#edaa79"] ;
515 -> 525 ;
526 [label=<Feature 2 &le; 404.0<br/>gini = 0.35<br/>samples = 31<br/>value = [24, 7]<br/>class = Clase 0>, fillcolor="#eda673"] ;
525 -> 526 ;
527 [label=<Feature 2 &le; 388.0<br/>gini = 0.32<br/>samples = 15<br/>value = [12, 3]<br/>class = Clase 0>, fillcolor="#eca06a"] ;
526 -> 527 ;
528 [label=<gini = 0.346<br/>samples = 9<br/>value = [7, 2]<br/>class = Clase 0>, fillcolor="#eca572"] ;
527 -> 528 ;
529 [label=<gini = 0.278<br/>samples = 6<br/>value = [5, 1]<br/>class = Clase 0>, fillcolor="#ea9a61"] ;
527 -> 529 ;
530 [label=<Feature 2 &le; 420.0<br/>gini = 0.375<br/>samples = 16<br/>value = [12, 4]<br/>class = Clase 0>, fillcolor="#eeab7b"] ;
526 -> 530 ;
531 [label=<gini = 0.375<br/>samples = 8<br/>value = [6, 2]<br/>class = Clase 0>, fillcolor="#eeab7b"] ;
530 -> 531 ;
532 [label=<gini = 0.375<br/>samples = 8<br/>value = [6, 2]<br/>class = Clase 0>, fillcolor="#eeab7b"] ;
530 -> 532 ;
533 [label=<gini = 0.444<br/>samples = 6<br/>value = [4, 2]<br/>class = Clase 0>, fillcolor="#f2c09c"] ;
525 -> 533 ;
534 [label=<Feature 2 &le; 446.5<br/>gini = 0.5<br/>samples = 10<br/>value = [5, 5]<br/>class = Clase 0>, fillcolor="#ffffff"] ;
514 -> 534 ;
535 [label=<gini = 0.444<br/>samples = 3<br/>value = [1, 2]<br/>class = Clase 1>, fillcolor="#9ccef2"] ;
534 -> 535 ;
536 [label=<gini = 0.49<br/>samples = 7<br/>value = [4, 3]<br/>class = Clase 0>, fillcolor="#f8e0ce"] ;
534 -> 536 ;
537 [label=<Feature 2 &le; 400.5<br/>gini = 0.116<br/>samples = 856<br/>value = [803, 53]<br/>class = Clase 0>, fillcolor="#e78946"] ;
415 -> 537 ;
538 [label=<Feature 2 &le; 143.0<br/>gini = 0.078<br/>samples = 709<br/>value = [680, 29]<br/>class = Clase 0>, fillcolor="#e68641"] ;
537 -> 538 ;
539 [label=<Feature 2 &le; 140.5<br/>gini = 0.413<br/>samples = 24<br/>value = [17, 7]<br/>class = Clase 0>, fillcolor="#f0b58b"] ;
538 -> 539 ;
540 [label=<Feature 1 &le; -11.5<br/>gini = 0.351<br/>samples = 22<br/>value = [17, 5]<br/>class = Clase 0>, fillcolor="#eda673"] ;
539 -> 540 ;
541 [label=<Feature 2 &le; 138.0<br/>gini = 0.426<br/>samples = 13<br/>value = [9, 4]<br/>class = Clase 0>, fillcolor="#f1b991"] ;
540 -> 541 ;
542 [label=<gini = 0.408<br/>samples = 7<br/>value = [5, 2]<br/>class = Clase 0>, fillcolor="#efb388"] ;
541 -> 542 ;
543 [label=<gini = 0.444<br/>samples = 6<br/>value = [4, 2]<br/>class = Clase 0>, fillcolor="#f2c09c"] ;
541 -> 543 ;
544 [label=<Feature 2 &le; 139.5<br/>gini = 0.198<br/>samples = 9<br/>value = [8, 1]<br/>class = Clase 0>, fillcolor="#e89152"] ;
540 -> 544 ;
545 [label=<gini = 0.278<br/>samples = 6<br/>value = [5, 1]<br/>class = Clase 0>, fillcolor="#ea9a61"] ;
544 -> 545 ;
546 [label=<gini = 0.0<br/>samples = 3<br/>value = [3, 0]<br/>class = Clase 0>, fillcolor="#e58139"] ;
544 -> 546 ;
547 [label=<gini = 0.0<br/>samples = 2<br/>value = [0, 2]<br/>class = Clase 1>, fillcolor="#399de5"] ;
539 -> 547 ;
548 [label=<Feature 2 &le; 312.5<br/>gini = 0.062<br/>samples = 685<br/>value = [663, 22]<br/>class = Clase 0>, fillcolor="#e68540"] ;
538 -> 548 ;
549 [label=<Feature 2 &le; 167.5<br/>gini = 0.04<br/>samples = 445<br/>value = [436, 9]<br/>class = Clase 0>, fillcolor="#e6843d"] ;
548 -> 549 ;
550 [label=<Feature 1 &le; -11.5<br/>gini = 0.123<br/>samples = 61<br/>value = [57, 4]<br/>class = Clase 0>, fillcolor="#e78a47"] ;
549 -> 550 ;
551 [label=<Feature 1 &le; -13.5<br/>gini = 0.208<br/>samples = 34<br/>value = [30, 4]<br/>class = Clase 0>, fillcolor="#e89253"] ;
550 -> 551 ;
552 [label=<gini = 0.0<br/>samples = 13<br/>value = [13, 0]<br/>class = Clase 0>, fillcolor="#e58139"] ;
551 -> 552 ;
553 [label=<Feature 1 &le; -12.5<br/>gini = 0.308<br/>samples = 21<br/>value = [17, 4]<br/>class = Clase 0>, fillcolor="#eb9f68"] ;
551 -> 553 ;
554 [label=<Feature 2 &le; 160.5<br/>gini = 0.375<br/>samples = 8<br/>value = [6, 2]<br/>class = Clase 0>, fillcolor="#eeab7b"] ;
553 -> 554 ;
555 [label=<gini = 0.375<br/>samples = 4<br/>value = [3, 1]<br/>class = Clase 0>, fillcolor="#eeab7b"] ;
554 -> 555 ;
556 [label=<gini = 0.375<br/>samples = 4<br/>value = [3, 1]<br/>class = Clase 0>, fillcolor="#eeab7b"] ;
554 -> 556 ;
557 [label=<Feature 2 &le; 154.0<br/>gini = 0.26<br/>samples = 13<br/>value = [11, 2]<br/>class = Clase 0>, fillcolor="#ea985d"] ;
553 -> 557 ;
558 [label=<gini = 0.32<br/>samples = 5<br/>value = [4, 1]<br/>class = Clase 0>, fillcolor="#eca06a"] ;
557 -> 558 ;
559 [label=<gini = 0.219<br/>samples = 8<br/>value = [7, 1]<br/>class = Clase 0>, fillcolor="#e99355"] ;
557 -> 559 ;
560 [label=<gini = 0.0<br/>samples = 27<br/>value = [27, 0]<br/>class = Clase 0>, fillcolor="#e58139"] ;
550 -> 560 ;
561 [label=<Feature 2 &le; 270.5<br/>gini = 0.026<br/>samples = 384<br/>value = [379, 5]<br/>class = Clase 0>, fillcolor="#e5833c"] ;
549 -> 561 ;
562 [label=<Feature 2 &le; 193.5<br/>gini = 0.014<br/>samples = 279<br/>value = [277, 2]<br/>class = Clase 0>, fillcolor="#e5823a"] ;
561 -> 562 ;
563 [label=<Feature 2 &le; 191.5<br/>gini = 0.058<br/>samples = 67<br/>value = [65, 2]<br/>class = Clase 0>, fillcolor="#e6853f"] ;
562 -> 563 ;
564 [label=<Feature 1 &le; -12.5<br/>gini = 0.031<br/>samples = 63<br/>value = [62, 1]<br/>class = Clase 0>, fillcolor="#e5833c"] ;
563 -> 564 ;
565 [label=<Feature 1 &le; -13.5<br/>gini = 0.091<br/>samples = 21<br/>value = [20, 1]<br/>class = Clase 0>, fillcolor="#e68743"] ;
564 -> 565 ;
566 [label=<gini = 0.0<br/>samples = 17<br/>value = [17, 0]<br/>class = Clase 0>, fillcolor="#e58139"] ;
565 -> 566 ;
567 [label=<gini = 0.375<br/>samples = 4<br/>value = [3, 1]<br/>class = Clase 0>, fillcolor="#eeab7b"] ;
565 -> 567 ;
568 [label=<gini = 0.0<br/>samples = 42<br/>value = [42, 0]<br/>class = Clase 0>, fillcolor="#e58139"] ;
564 -> 568 ;
569 [label=<gini = 0.375<br/>samples = 4<br/>value = [3, 1]<br/>class = Clase 0>, fillcolor="#eeab7b"] ;
563 -> 569 ;
570 [label=<gini = 0.0<br/>samples = 212<br/>value = [212, 0]<br/>class = Clase 0>, fillcolor="#e58139"] ;
562 -> 570 ;
571 [label=<Feature 1 &le; -11.5<br/>gini = 0.056<br/>samples = 105<br/>value = [102, 3]<br/>class = Clase 0>, fillcolor="#e6853f"] ;
561 -> 571 ;
572 [label=<gini = 0.0<br/>samples = 60<br/>value = [60, 0]<br/>class = Clase 0>, fillcolor="#e58139"] ;
571 -> 572 ;
573 [label=<Feature 1 &le; -10.5<br/>gini = 0.124<br/>samples = 45<br/>value = [42, 3]<br/>class = Clase 0>, fillcolor="#e78a47"] ;
571 -> 573 ;
574 [label=<Feature 2 &le; 287.5<br/>gini = 0.185<br/>samples = 29<br/>value = [26, 3]<br/>class = Clase 0>, fillcolor="#e89050"] ;
573 -> 574 ;
575 [label=<Feature 2 &le; 276.5<br/>gini = 0.231<br/>samples = 15<br/>value = [13, 2]<br/>class = Clase 0>, fillcolor="#e99457"] ;
574 -> 575 ;
576 [label=<gini = 0.245<br/>samples = 7<br/>value = [6, 1]<br/>class = Clase 0>, fillcolor="#e9965a"] ;
575 -> 576 ;
577 [label=<gini = 0.219<br/>samples = 8<br/>value = [7, 1]<br/>class = Clase 0>, fillcolor="#e99355"] ;
575 -> 577 ;
578 [label=<Feature 2 &le; 298.5<br/>gini = 0.133<br/>samples = 14<br/>value = [13, 1]<br/>class = Clase 0>, fillcolor="#e78b48"] ;
574 -> 578 ;
579 [label=<gini = 0.0<br/>samples = 5<br/>value = [5, 0]<br/>class = Clase 0>, fillcolor="#e58139"] ;
578 -> 579 ;
580 [label=<gini = 0.198<br/>samples = 9<br/>value = [8, 1]<br/>class = Clase 0>, fillcolor="#e89152"] ;
578 -> 580 ;
581 [label=<gini = 0.0<br/>samples = 16<br/>value = [16, 0]<br/>class = Clase 0>, fillcolor="#e58139"] ;
573 -> 581 ;
582 [label=<Feature 1 &le; -10.5<br/>gini = 0.102<br/>samples = 240<br/>value = [227, 13]<br/>class = Clase 0>, fillcolor="#e68844"] ;
548 -> 582 ;
583 [label=<Feature 1 &le; -11.5<br/>gini = 0.124<br/>samples = 196<br/>value = [183, 13]<br/>class = Clase 0>, fillcolor="#e78a47"] ;
582 -> 583 ;
584 [label=<Feature 1 &le; -12.5<br/>gini = 0.086<br/>samples = 134<br/>value = [128, 6]<br/>class = Clase 0>, fillcolor="#e68742"] ;
583 -> 584 ;
585 [label=<Feature 1 &le; -13.5<br/>gini = 0.14<br/>samples = 79<br/>value = [73, 6]<br/>class = Clase 0>, fillcolor="#e78b49"] ;
584 -> 585 ;
586 [label=<Feature 2 &le; 374.0<br/>gini = 0.065<br/>samples = 59<br/>value = [57, 2]<br/>class = Clase 0>, fillcolor="#e68540"] ;
585 -> 586 ;
587 [label=<gini = 0.0<br/>samples = 37<br/>value = [37, 0]<br/>class = Clase 0>, fillcolor="#e58139"] ;
586 -> 587 ;
588 [label=<Feature 1 &le; -14.5<br/>gini = 0.165<br/>samples = 22<br/>value = [20, 2]<br/>class = Clase 0>, fillcolor="#e88e4d"] ;
586 -> 588 ;
589 [label=<gini = 0.0<br/>samples = 7<br/>value = [7, 0]<br/>class = Clase 0>, fillcolor="#e58139"] ;
588 -> 589 ;
590 [label=<Feature 2 &le; 385.0<br/>gini = 0.231<br/>samples = 15<br/>value = [13, 2]<br/>class = Clase 0>, fillcolor="#e99457"] ;
588 -> 590 ;
591 [label=<gini = 0.219<br/>samples = 8<br/>value = [7, 1]<br/>class = Clase 0>, fillcolor="#e99355"] ;
590 -> 591 ;
592 [label=<gini = 0.245<br/>samples = 7<br/>value = [6, 1]<br/>class = Clase 0>, fillcolor="#e9965a"] ;
590 -> 592 ;
593 [label=<Feature 2 &le; 368.5<br/>gini = 0.32<br/>samples = 20<br/>value = [16, 4]<br/>class = Clase 0>, fillcolor="#eca06a"] ;
585 -> 593 ;
594 [label=<Feature 2 &le; 355.5<br/>gini = 0.391<br/>samples = 15<br/>value = [11, 4]<br/>class = Clase 0>, fillcolor="#eeaf81"] ;
593 -> 594 ;
595 [label=<Feature 2 &le; 329.5<br/>gini = 0.375<br/>samples = 12<br/>value = [9, 3]<br/>class = Clase 0>, fillcolor="#eeab7b"] ;
594 -> 595 ;
596 [label=<gini = 0.375<br/>samples = 4<br/>value = [3, 1]<br/>class = Clase 0>, fillcolor="#eeab7b"] ;
595 -> 596 ;
597 [label=<Feature 2 &le; 342.5<br/>gini = 0.375<br/>samples = 8<br/>value = [6, 2]<br/>class = Clase 0>, fillcolor="#eeab7b"] ;
595 -> 597 ;
598 [label=<gini = 0.375<br/>samples = 4<br/>value = [3, 1]<br/>class = Clase 0>, fillcolor="#eeab7b"] ;
597 -> 598 ;
599 [label=<gini = 0.375<br/>samples = 4<br/>value = [3, 1]<br/>class = Clase 0>, fillcolor="#eeab7b"] ;
597 -> 599 ;
600 [label=<gini = 0.444<br/>samples = 3<br/>value = [2, 1]<br/>class = Clase 0>, fillcolor="#f2c09c"] ;
594 -> 600 ;
601 [label=<gini = 0.0<br/>samples = 5<br/>value = [5, 0]<br/>class = Clase 0>, fillcolor="#e58139"] ;
593 -> 601 ;
602 [label=<gini = 0.0<br/>samples = 55<br/>value = [55, 0]<br/>class = Clase 0>, fillcolor="#e58139"] ;
584 -> 602 ;
603 [label=<Feature 2 &le; 331.5<br/>gini = 0.2<br/>samples = 62<br/>value = [55, 7]<br/>class = Clase 0>, fillcolor="#e89152"] ;
583 -> 603 ;
604 [label=<Feature 2 &le; 320.5<br/>gini = 0.142<br/>samples = 13<br/>value = [12, 1]<br/>class = Clase 0>, fillcolor="#e78c49"] ;
603 -> 604 ;
605 [label=<gini = 0.278<br/>samples = 6<br/>value = [5, 1]<br/>class = Clase 0>, fillcolor="#ea9a61"] ;
604 -> 605 ;
606 [label=<gini = 0.0<br/>samples = 7<br/>value = [7, 0]<br/>class = Clase 0>, fillcolor="#e58139"] ;
604 -> 606 ;
607 [label=<Feature 2 &le; 342.5<br/>gini = 0.215<br/>samples = 49<br/>value = [43, 6]<br/>class = Clase 0>, fillcolor="#e99355"] ;
603 -> 607 ;
608 [label=<gini = 0.198<br/>samples = 9<br/>value = [8, 1]<br/>class = Clase 0>, fillcolor="#e89152"] ;
607 -> 608 ;
609 [label=<Feature 2 &le; 353.5<br/>gini = 0.219<br/>samples = 40<br/>value = [35, 5]<br/>class = Clase 0>, fillcolor="#e99355"] ;
607 -> 609 ;
610 [label=<gini = 0.245<br/>samples = 7<br/>value = [6, 1]<br/>class = Clase 0>, fillcolor="#e9965a"] ;
609 -> 610 ;
611 [label=<Feature 2 &le; 364.5<br/>gini = 0.213<br/>samples = 33<br/>value = [29, 4]<br/>class = Clase 0>, fillcolor="#e99254"] ;
609 -> 611 ;
612 [label=<gini = 0.198<br/>samples = 9<br/>value = [8, 1]<br/>class = Clase 0>, fillcolor="#e89152"] ;
611 -> 612 ;
613 [label=<Feature 2 &le; 375.5<br/>gini = 0.219<br/>samples = 24<br/>value = [21, 3]<br/>class = Clase 0>, fillcolor="#e99355"] ;
611 -> 613 ;
614 [label=<gini = 0.219<br/>samples = 8<br/>value = [7, 1]<br/>class = Clase 0>, fillcolor="#e99355"] ;
613 -> 614 ;
615 [label=<Feature 2 &le; 386.5<br/>gini = 0.219<br/>samples = 16<br/>value = [14, 2]<br/>class = Clase 0>, fillcolor="#e99355"] ;
613 -> 615 ;
616 [label=<gini = 0.219<br/>samples = 8<br/>value = [7, 1]<br/>class = Clase 0>, fillcolor="#e99355"] ;
615 -> 616 ;
617 [label=<gini = 0.219<br/>samples = 8<br/>value = [7, 1]<br/>class = Clase 0>, fillcolor="#e99355"] ;
615 -> 617 ;
618 [label=<gini = 0.0<br/>samples = 44<br/>value = [44, 0]<br/>class = Clase 0>, fillcolor="#e58139"] ;
582 -> 618 ;
619 [label=<Feature 1 &le; -12.5<br/>gini = 0.273<br/>samples = 147<br/>value = [123.0, 24.0]<br/>class = Clase 0>, fillcolor="#ea9a60"] ;
537 -> 619 ;
620 [label=<Feature 1 &le; -13.5<br/>gini = 0.453<br/>samples = 52<br/>value = [34, 18]<br/>class = Clase 0>, fillcolor="#f3c4a2"] ;
619 -> 620 ;
621 [label=<Feature 1 &le; -14.5<br/>gini = 0.367<br/>samples = 33<br/>value = [25, 8]<br/>class = Clase 0>, fillcolor="#eda978"] ;
620 -> 621 ;
622 [label=<Feature 2 &le; 422.5<br/>gini = 0.5<br/>samples = 10<br/>value = [5, 5]<br/>class = Clase 0>, fillcolor="#ffffff"] ;
621 -> 622 ;
623 [label=<gini = 0.444<br/>samples = 3<br/>value = [2, 1]<br/>class = Clase 0>, fillcolor="#f2c09c"] ;
622 -> 623 ;
624 [label=<Feature 2 &le; 437.5<br/>gini = 0.49<br/>samples = 7<br/>value = [3, 4]<br/>class = Clase 1>, fillcolor="#cee6f8"] ;
622 -> 624 ;
625 [label=<gini = 0.444<br/>samples = 3<br/>value = [1, 2]<br/>class = Clase 1>, fillcolor="#9ccef2"] ;
624 -> 625 ;
626 [label=<gini = 0.5<br/>samples = 4<br/>value = [2, 2]<br/>class = Clase 0>, fillcolor="#ffffff"] ;
624 -> 626 ;
627 [label=<Feature 2 &le; 427.0<br/>gini = 0.227<br/>samples = 23<br/>value = [20, 3]<br/>class = Clase 0>, fillcolor="#e99457"] ;
621 -> 627 ;
628 [label=<Feature 2 &le; 413.0<br/>gini = 0.26<br/>samples = 13<br/>value = [11, 2]<br/>class = Clase 0>, fillcolor="#ea985d"] ;
627 -> 628 ;
629 [label=<gini = 0.278<br/>samples = 6<br/>value = [5, 1]<br/>class = Clase 0>, fillcolor="#ea9a61"] ;
628 -> 629 ;
630 [label=<gini = 0.245<br/>samples = 7<br/>value = [6, 1]<br/>class = Clase 0>, fillcolor="#e9965a"] ;
628 -> 630 ;
631 [label=<Feature 2 &le; 441.0<br/>gini = 0.18<br/>samples = 10<br/>value = [9, 1]<br/>class = Clase 0>, fillcolor="#e88f4f"] ;
627 -> 631 ;
632 [label=<gini = 0.0<br/>samples = 4<br/>value = [4, 0]<br/>class = Clase 0>, fillcolor="#e58139"] ;
631 -> 632 ;
633 [label=<gini = 0.278<br/>samples = 6<br/>value = [5, 1]<br/>class = Clase 0>, fillcolor="#ea9a61"] ;
631 -> 633 ;
634 [label=<Feature 2 &le; 407.5<br/>gini = 0.499<br/>samples = 19<br/>value = [9, 10]<br/>class = Clase 1>, fillcolor="#ebf5fc"] ;
620 -> 634 ;
635 [label=<gini = 0.444<br/>samples = 3<br/>value = [1, 2]<br/>class = Clase 1>, fillcolor="#9ccef2"] ;
634 -> 635 ;
636 [label=<Feature 2 &le; 420.5<br/>gini = 0.5<br/>samples = 16<br/>value = [8, 8]<br/>class = Clase 0>, fillcolor="#ffffff"] ;
634 -> 636 ;
637 [label=<gini = 0.5<br/>samples = 4<br/>value = [2, 2]<br/>class = Clase 0>, fillcolor="#ffffff"] ;
636 -> 637 ;
638 [label=<Feature 2 &le; 433.5<br/>gini = 0.5<br/>samples = 12<br/>value = [6, 6]<br/>class = Clase 0>, fillcolor="#ffffff"] ;
636 -> 638 ;
639 [label=<gini = 0.5<br/>samples = 4<br/>value = [2, 2]<br/>class = Clase 0>, fillcolor="#ffffff"] ;
638 -> 639 ;
640 [label=<Feature 2 &le; 446.5<br/>gini = 0.5<br/>samples = 8<br/>value = [4, 4]<br/>class = Clase 0>, fillcolor="#ffffff"] ;
638 -> 640 ;
641 [label=<gini = 0.5<br/>samples = 4<br/>value = [2, 2]<br/>class = Clase 0>, fillcolor="#ffffff"] ;
640 -> 641 ;
642 [label=<gini = 0.5<br/>samples = 4<br/>value = [2, 2]<br/>class = Clase 0>, fillcolor="#ffffff"] ;
640 -> 642 ;
643 [label=<Feature 1 &le; -10.5<br/>gini = 0.118<br/>samples = 95<br/>value = [89, 6]<br/>class = Clase 0>, fillcolor="#e78946"] ;
619 -> 643 ;
644 [label=<Feature 2 &le; 441.5<br/>gini = 0.155<br/>samples = 71<br/>value = [65, 6]<br/>class = Clase 0>, fillcolor="#e78d4b"] ;
643 -> 644 ;
645 [label=<Feature 1 &le; -11.5<br/>gini = 0.117<br/>samples = 48<br/>value = [45, 3]<br/>class = Clase 0>, fillcolor="#e78946"] ;
644 -> 645 ;
646 [label=<gini = 0.0<br/>samples = 18<br/>value = [18, 0]<br/>class = Clase 0>, fillcolor="#e58139"] ;
645 -> 646 ;
647 [label=<Feature 2 &le; 419.5<br/>gini = 0.18<br/>samples = 30<br/>value = [27, 3]<br/>class = Clase 0>, fillcolor="#e88f4f"] ;
645 -> 647 ;
648 [label=<Feature 2 &le; 408.5<br/>gini = 0.231<br/>samples = 15<br/>value = [13, 2]<br/>class = Clase 0>, fillcolor="#e99457"] ;
647 -> 648 ;
649 [label=<gini = 0.219<br/>samples = 8<br/>value = [7, 1]<br/>class = Clase 0>, fillcolor="#e99355"] ;
648 -> 649 ;
650 [label=<gini = 0.245<br/>samples = 7<br/>value = [6, 1]<br/>class = Clase 0>, fillcolor="#e9965a"] ;
648 -> 650 ;
651 [label=<Feature 2 &le; 430.5<br/>gini = 0.124<br/>samples = 15<br/>value = [14, 1]<br/>class = Clase 0>, fillcolor="#e78a47"] ;
647 -> 651 ;
652 [label=<gini = 0.0<br/>samples = 8<br/>value = [8, 0]<br/>class = Clase 0>, fillcolor="#e58139"] ;
651 -> 652 ;
653 [label=<gini = 0.245<br/>samples = 7<br/>value = [6, 1]<br/>class = Clase 0>, fillcolor="#e9965a"] ;
651 -> 653 ;
654 [label=<Feature 1 &le; -11.5<br/>gini = 0.227<br/>samples = 23<br/>value = [20, 3]<br/>class = Clase 0>, fillcolor="#e99457"] ;
644 -> 654 ;
655 [label=<gini = 0.278<br/>samples = 6<br/>value = [5, 1]<br/>class = Clase 0>, fillcolor="#ea9a61"] ;
654 -> 655 ;
656 [label=<Feature 2 &le; 452.5<br/>gini = 0.208<br/>samples = 17<br/>value = [15, 2]<br/>class = Clase 0>, fillcolor="#e89253"] ;
654 -> 656 ;
657 [label=<gini = 0.198<br/>samples = 9<br/>value = [8, 1]<br/>class = Clase 0>, fillcolor="#e89152"] ;
656 -> 657 ;
658 [label=<gini = 0.219<br/>samples = 8<br/>value = [7, 1]<br/>class = Clase 0>, fillcolor="#e99355"] ;
656 -> 658 ;
659 [label=<gini = 0.0<br/>samples = 24<br/>value = [24, 0]<br/>class = Clase 0>, fillcolor="#e58139"] ;
643 -> 659 ;
660 [label=<Feature 2 &le; 645.5<br/>gini = 0.5<br/>samples = 1561<br/>value = [791, 770]<br/>class = Clase 0>, fillcolor="#fefcfa"] ;
146 -> 660 ;
661 [label=<Feature 1 &le; -21.5<br/>gini = 0.494<br/>samples = 1149<br/>value = [636, 513]<br/>class = Clase 0>, fillcolor="#fae7d9"] ;
660 -> 661 ;
662 [label=<Feature 1 &le; -23.5<br/>gini = 0.5<br/>samples = 360<br/>value = [180, 180]<br/>class = Clase 0>, fillcolor="#ffffff"] ;
661 -> 662 ;
663 [label=<Feature 2 &le; 519.0<br/>gini = 0.497<br/>samples = 242<br/>value = [131, 111]<br/>class = Clase 0>, fillcolor="#fbece1"] ;
662 -> 663 ;
664 [label=<Feature 2 &le; 475.5<br/>gini = 0.473<br/>samples = 91<br/>value = [56, 35]<br/>class = Clase 0>, fillcolor="#f5d0b5"] ;
663 -> 664 ;
665 [label=<Feature 1 &le; -24.5<br/>gini = 0.486<br/>samples = 24<br/>value = [10, 14]<br/>class = Clase 1>, fillcolor="#c6e3f8"] ;
664 -> 665 ;
666 [label=<Feature 2 &le; 463.0<br/>gini = 0.444<br/>samples = 15<br/>value = [5, 10]<br/>class = Clase 1>, fillcolor="#9ccef2"] ;
665 -> 666 ;
667 [label=<gini = 0.375<br/>samples = 4<br/>value = [1, 3]<br/>class = Clase 1>, fillcolor="#7bbeee"] ;
666 -> 667 ;
668 [label=<Feature 2 &le; 467.0<br/>gini = 0.463<br/>samples = 11<br/>value = [4, 7]<br/>class = Clase 1>, fillcolor="#aad5f4"] ;
666 -> 668 ;
669 [label=<gini = 0.48<br/>samples = 5<br/>value = [2, 3]<br/>class = Clase 1>, fillcolor="#bddef6"] ;
668 -> 669 ;
670 [label=<Feature 1 &le; -27.0<br/>gini = 0.444<br/>samples = 6<br/>value = [2, 4]<br/>class = Clase 1>, fillcolor="#9ccef2"] ;
668 -> 670 ;
671 [label=<gini = 0.444<br/>samples = 3<br/>value = [1, 2]<br/>class = Clase 1>, fillcolor="#9ccef2"] ;
670 -> 671 ;
672 [label=<gini = 0.444<br/>samples = 3<br/>value = [1, 2]<br/>class = Clase 1>, fillcolor="#9ccef2"] ;
670 -> 672 ;
673 [label=<gini = 0.494<br/>samples = 9<br/>value = [5, 4]<br/>class = Clase 0>, fillcolor="#fae6d7"] ;
665 -> 673 ;
674 [label=<Feature 1 &le; -26.5<br/>gini = 0.43<br/>samples = 67<br/>value = [46, 21]<br/>class = Clase 0>, fillcolor="#f1bb93"] ;
664 -> 674 ;
675 [label=<Feature 1 &le; -27.5<br/>gini = 0.291<br/>samples = 34<br/>value = [28, 6]<br/>class = Clase 0>, fillcolor="#eb9c63"] ;
674 -> 675 ;
676 [label=<Feature 2 &le; 493.5<br/>gini = 0.444<br/>samples = 18<br/>value = [12, 6]<br/>class = Clase 0>, fillcolor="#f2c09c"] ;
675 -> 676 ;
677 [label=<Feature 2 &le; 483.0<br/>gini = 0.48<br/>samples = 10<br/>value = [6, 4]<br/>class = Clase 0>, fillcolor="#f6d5bd"] ;
676 -> 677 ;
678 [label=<gini = 0.48<br/>samples = 5<br/>value = [3, 2]<br/>class = Clase 0>, fillcolor="#f6d5bd"] ;
677 -> 678 ;
679 [label=<gini = 0.48<br/>samples = 5<br/>value = [3, 2]<br/>class = Clase 0>, fillcolor="#f6d5bd"] ;
677 -> 679 ;
680 [label=<Feature 2 &le; 500.5<br/>gini = 0.375<br/>samples = 8<br/>value = [6, 2]<br/>class = Clase 0>, fillcolor="#eeab7b"] ;
676 -> 680 ;
681 [label=<gini = 0.375<br/>samples = 4<br/>value = [3, 1]<br/>class = Clase 0>, fillcolor="#eeab7b"] ;
680 -> 681 ;
682 [label=<gini = 0.375<br/>samples = 4<br/>value = [3, 1]<br/>class = Clase 0>, fillcolor="#eeab7b"] ;
680 -> 682 ;
683 [label=<gini = 0.0<br/>samples = 16<br/>value = [16, 0]<br/>class = Clase 0>, fillcolor="#e58139"] ;
675 -> 683 ;
684 [label=<Feature 2 &le; 504.0<br/>gini = 0.496<br/>samples = 33<br/>value = [18, 15]<br/>class = Clase 0>, fillcolor="#fbeade"] ;
674 -> 684 ;
685 [label=<Feature 2 &le; 488.0<br/>gini = 0.5<br/>samples = 18<br/>value = [9, 9]<br/>class = Clase 0>, fillcolor="#ffffff"] ;
684 -> 685 ;
686 [label=<gini = 0.5<br/>samples = 10<br/>value = [5, 5]<br/>class = Clase 0>, fillcolor="#ffffff"] ;
685 -> 686 ;
687 [label=<Feature 1 &le; -25.5<br/>gini = 0.5<br/>samples = 8<br/>value = [4, 4]<br/>class = Clase 0>, fillcolor="#ffffff"] ;
685 -> 687 ;
688 [label=<gini = 0.5<br/>samples = 6<br/>value = [3, 3]<br/>class = Clase 0>, fillcolor="#ffffff"] ;
687 -> 688 ;
689 [label=<gini = 0.5<br/>samples = 2<br/>value = [1, 1]<br/>class = Clase 0>, fillcolor="#ffffff"] ;
687 -> 689 ;
690 [label=<Feature 1 &le; -25.0<br/>gini = 0.48<br/>samples = 15<br/>value = [9, 6]<br/>class = Clase 0>, fillcolor="#f6d5bd"] ;
684 -> 690 ;
691 [label=<gini = 0.48<br/>samples = 5<br/>value = [3, 2]<br/>class = Clase 0>, fillcolor="#f6d5bd"] ;
690 -> 691 ;
692 [label=<gini = 0.48<br/>samples = 10<br/>value = [6, 4]<br/>class = Clase 0>, fillcolor="#f6d5bd"] ;
690 -> 692 ;
693 [label=<Feature 2 &le; 643.0<br/>gini = 0.5<br/>samples = 151<br/>value = [75, 76]<br/>class = Clase 1>, fillcolor="#fcfeff"] ;
663 -> 693 ;
694 [label=<Feature 2 &le; 623.5<br/>gini = 0.5<br/>samples = 146<br/>value = [74, 72]<br/>class = Clase 0>, fillcolor="#fefcfa"] ;
693 -> 694 ;
695 [label=<Feature 2 &le; 617.5<br/>gini = 0.499<br/>samples = 126<br/>value = [61, 65]<br/>class = Clase 1>, fillcolor="#f3f9fd"] ;
694 -> 695 ;
696 [label=<Feature 1 &le; -28.5<br/>gini = 0.5<br/>samples = 117<br/>value = [59, 58]<br/>class = Clase 0>, fillcolor="#fffdfc"] ;
695 -> 696 ;
697 [label=<Feature 1 &le; -29.5<br/>gini = 0.482<br/>samples = 32<br/>value = [13, 19]<br/>class = Clase 1>, fillcolor="#c0e0f7"] ;
696 -> 697 ;
698 [label=<Feature 2 &le; 535.0<br/>gini = 0.48<br/>samples = 15<br/>value = [9, 6]<br/>class = Clase 0>, fillcolor="#f6d5bd"] ;
697 -> 698 ;
699 [label=<gini = 0.5<br/>samples = 4<br/>value = [2, 2]<br/>class = Clase 0>, fillcolor="#ffffff"] ;
698 -> 699 ;
700 [label=<Feature 2 &le; 595.0<br/>gini = 0.463<br/>samples = 11<br/>value = [7, 4]<br/>class = Clase 0>, fillcolor="#f4c9aa"] ;
698 -> 700 ;
701 [label=<Feature 2 &le; 565.0<br/>gini = 0.444<br/>samples = 6<br/>value = [4, 2]<br/>class = Clase 0>, fillcolor="#f2c09c"] ;
700 -> 701 ;
702 [label=<gini = 0.444<br/>samples = 3<br/>value = [2, 1]<br/>class = Clase 0>, fillcolor="#f2c09c"] ;
701 -> 702 ;
703 [label=<gini = 0.444<br/>samples = 3<br/>value = [2, 1]<br/>class = Clase 0>, fillcolor="#f2c09c"] ;
701 -> 703 ;
704 [label=<gini = 0.48<br/>samples = 5<br/>value = [3, 2]<br/>class = Clase 0>, fillcolor="#f6d5bd"] ;
700 -> 704 ;
705 [label=<Feature 2 &le; 569.5<br/>gini = 0.36<br/>samples = 17<br/>value = [4, 13]<br/>class = Clase 1>, fillcolor="#76bbed"] ;
697 -> 705 ;
706 [label=<Feature 2 &le; 540.5<br/>gini = 0.346<br/>samples = 9<br/>value = [2, 7]<br/>class = Clase 1>, fillcolor="#72b9ec"] ;
705 -> 706 ;
707 [label=<gini = 0.375<br/>samples = 4<br/>value = [1, 3]<br/>class = Clase 1>, fillcolor="#7bbeee"] ;
706 -> 707 ;
708 [label=<gini = 0.32<br/>samples = 5<br/>value = [1, 4]<br/>class = Clase 1>, fillcolor="#6ab6ec"] ;
706 -> 708 ;
709 [label=<Feature 2 &le; 598.5<br/>gini = 0.375<br/>samples = 8<br/>value = [2, 6]<br/>class = Clase 1>, fillcolor="#7bbeee"] ;
705 -> 709 ;
710 [label=<gini = 0.375<br/>samples = 4<br/>value = [1, 3]<br/>class = Clase 1>, fillcolor="#7bbeee"] ;
709 -> 710 ;
711 [label=<gini = 0.375<br/>samples = 4<br/>value = [1, 3]<br/>class = Clase 1>, fillcolor="#7bbeee"] ;
709 -> 711 ;
712 [label=<Feature 2 &le; 535.0<br/>gini = 0.497<br/>samples = 85<br/>value = [46, 39]<br/>class = Clase 0>, fillcolor="#fbece1"] ;
696 -> 712 ;
713 [label=<Feature 2 &le; 528.5<br/>gini = 0.492<br/>samples = 16<br/>value = [7, 9]<br/>class = Clase 1>, fillcolor="#d3e9f9"] ;
712 -> 713 ;
714 [label=<gini = 0.444<br/>samples = 3<br/>value = [1, 2]<br/>class = Clase 1>, fillcolor="#9ccef2"] ;
713 -> 714 ;
715 [label=<Feature 1 &le; -26.0<br/>gini = 0.497<br/>samples = 13<br/>value = [6, 7]<br/>class = Clase 1>, fillcolor="#e3f1fb"] ;
713 -> 715 ;
716 [label=<gini = 0.5<br/>samples = 6<br/>value = [3, 3]<br/>class = Clase 0>, fillcolor="#ffffff"] ;
715 -> 716 ;
717 [label=<gini = 0.49<br/>samples = 7<br/>value = [3, 4]<br/>class = Clase 1>, fillcolor="#cee6f8"] ;
715 -> 717 ;
718 [label=<Feature 2 &le; 547.0<br/>gini = 0.491<br/>samples = 69<br/>value = [39, 30]<br/>class = Clase 0>, fillcolor="#f9e2d1"] ;
712 -> 718 ;
719 [label=<gini = 0.0<br/>samples = 4<br/>value = [4, 0]<br/>class = Clase 0>, fillcolor="#e58139"] ;
718 -> 719 ;
720 [label=<Feature 2 &le; 598.0<br/>gini = 0.497<br/>samples = 65<br/>value = [35, 30]<br/>class = Clase 0>, fillcolor="#fbede3"] ;
718 -> 720 ;
721 [label=<Feature 1 &le; -24.5<br/>gini = 0.5<br/>samples = 51<br/>value = [26, 25]<br/>class = Clase 0>, fillcolor="#fefaf7"] ;
720 -> 721 ;
722 [label=<Feature 2 &le; 562.5<br/>gini = 0.496<br/>samples = 35<br/>value = [16, 19]<br/>class = Clase 1>, fillcolor="#e0f0fb"] ;
721 -> 722 ;
723 [label=<Feature 1 &le; -26.5<br/>gini = 0.408<br/>samples = 7<br/>value = [2, 5]<br/>class = Clase 1>, fillcolor="#88c4ef"] ;
722 -> 723 ;
724 [label=<gini = 0.375<br/>samples = 4<br/>value = [1, 3]<br/>class = Clase 1>, fillcolor="#7bbeee"] ;
723 -> 724 ;
725 [label=<gini = 0.444<br/>samples = 3<br/>value = [1, 2]<br/>class = Clase 1>, fillcolor="#9ccef2"] ;
723 -> 725 ;
726 [label=<Feature 2 &le; 590.0<br/>gini = 0.5<br/>samples = 28<br/>value = [14, 14]<br/>class = Clase 0>, fillcolor="#ffffff"] ;
722 -> 726 ;
727 [label=<Feature 1 &le; -26.5<br/>gini = 0.484<br/>samples = 17<br/>value = [10, 7]<br/>class = Clase 0>, fillcolor="#f7d9c4"] ;
726 -> 727 ;
728 [label=<Feature 2 &le; 576.5<br/>gini = 0.496<br/>samples = 11<br/>value = [6, 5]<br/>class = Clase 0>, fillcolor="#fbeade"] ;
727 -> 728 ;
729 [label=<gini = 0.49<br/>samples = 7<br/>value = [4, 3]<br/>class = Clase 0>, fillcolor="#f8e0ce"] ;
728 -> 729 ;
730 [label=<gini = 0.5<br/>samples = 4<br/>value = [2, 2]<br/>class = Clase 0>, fillcolor="#ffffff"] ;
728 -> 730 ;
731 [label=<Feature 1 &le; -25.5<br/>gini = 0.444<br/>samples = 6<br/>value = [4, 2]<br/>class = Clase 0>, fillcolor="#f2c09c"] ;
727 -> 731 ;
732 [label=<gini = 0.444<br/>samples = 3<br/>value = [2, 1]<br/>class = Clase 0>, fillcolor="#f2c09c"] ;
731 -> 732 ;
733 [label=<gini = 0.444<br/>samples = 3<br/>value = [2, 1]<br/>class = Clase 0>, fillcolor="#f2c09c"] ;
731 -> 733 ;
734 [label=<Feature 2 &le; 594.0<br/>gini = 0.463<br/>samples = 11<br/>value = [4, 7]<br/>class = Clase 1>, fillcolor="#aad5f4"] ;
726 -> 734 ;
735 [label=<gini = 0.49<br/>samples = 7<br/>value = [3, 4]<br/>class = Clase 1>, fillcolor="#cee6f8"] ;
734 -> 735 ;
736 [label=<gini = 0.375<br/>samples = 4<br/>value = [1, 3]<br/>class = Clase 1>, fillcolor="#7bbeee"] ;
734 -> 736 ;
737 [label=<Feature 2 &le; 568.0<br/>gini = 0.469<br/>samples = 16<br/>value = [10, 6]<br/>class = Clase 0>, fillcolor="#f5cdb0"] ;
721 -> 737 ;
738 [label=<gini = 0.444<br/>samples = 9<br/>value = [6, 3]<br/>class = Clase 0>, fillcolor="#f2c09c"] ;
737 -> 738 ;
739 [label=<gini = 0.49<br/>samples = 7<br/>value = [4, 3]<br/>class = Clase 0>, fillcolor="#f8e0ce"] ;
737 -> 739 ;
740 [label=<Feature 1 &le; -24.5<br/>gini = 0.459<br/>samples = 14<br/>value = [9, 5]<br/>class = Clase 0>, fillcolor="#f3c7a7"] ;
720 -> 740 ;
741 [label=<Feature 1 &le; -26.5<br/>gini = 0.408<br/>samples = 7<br/>value = [5, 2]<br/>class = Clase 0>, fillcolor="#efb388"] ;
740 -> 741 ;
742 [label=<gini = 0.375<br/>samples = 4<br/>value = [3, 1]<br/>class = Clase 0>, fillcolor="#eeab7b"] ;
741 -> 742 ;
743 [label=<gini = 0.444<br/>samples = 3<br/>value = [2, 1]<br/>class = Clase 0>, fillcolor="#f2c09c"] ;
741 -> 743 ;
744 [label=<gini = 0.49<br/>samples = 7<br/>value = [4, 3]<br/>class = Clase 0>, fillcolor="#f8e0ce"] ;
740 -> 744 ;
745 [label=<Feature 1 &le; -26.5<br/>gini = 0.346<br/>samples = 9<br/>value = [2, 7]<br/>class = Clase 1>, fillcolor="#72b9ec"] ;
695 -> 745 ;
746 [label=<gini = 0.32<br/>samples = 5<br/>value = [1, 4]<br/>class = Clase 1>, fillcolor="#6ab6ec"] ;
745 -> 746 ;
747 [label=<gini = 0.375<br/>samples = 4<br/>value = [1, 3]<br/>class = Clase 1>, fillcolor="#7bbeee"] ;
745 -> 747 ;
748 [label=<Feature 2 &le; 626.5<br/>gini = 0.455<br/>samples = 20<br/>value = [13, 7]<br/>class = Clase 0>, fillcolor="#f3c5a4"] ;
694 -> 748 ;
749 [label=<gini = 0.0<br/>samples = 3<br/>value = [3, 0]<br/>class = Clase 0>, fillcolor="#e58139"] ;
748 -> 749 ;
750 [label=<Feature 2 &le; 641.0<br/>gini = 0.484<br/>samples = 17<br/>value = [10, 7]<br/>class = Clase 0>, fillcolor="#f7d9c4"] ;
748 -> 750 ;
751 [label=<Feature 2 &le; 634.0<br/>gini = 0.497<br/>samples = 13<br/>value = [7, 6]<br/>class = Clase 0>, fillcolor="#fbede3"] ;
750 -> 751 ;
752 [label=<gini = 0.5<br/>samples = 8<br/>value = [4, 4]<br/>class = Clase 0>, fillcolor="#ffffff"] ;
751 -> 752 ;
753 [label=<gini = 0.48<br/>samples = 5<br/>value = [3, 2]<br/>class = Clase 0>, fillcolor="#f6d5bd"] ;
751 -> 753 ;
754 [label=<gini = 0.375<br/>samples = 4<br/>value = [3, 1]<br/>class = Clase 0>, fillcolor="#eeab7b"] ;
750 -> 754 ;
755 [label=<gini = 0.32<br/>samples = 5<br/>value = [1, 4]<br/>class = Clase 1>, fillcolor="#6ab6ec"] ;
693 -> 755 ;
756 [label=<Feature 2 &le; 632.5<br/>gini = 0.486<br/>samples = 118<br/>value = [49, 69]<br/>class = Clase 1>, fillcolor="#c6e3f7"] ;
662 -> 756 ;
757 [label=<Feature 2 &le; 554.0<br/>gini = 0.48<br/>samples = 110<br/>value = [44, 66]<br/>class = Clase 1>, fillcolor="#bddef6"] ;
756 -> 757 ;
758 [label=<Feature 2 &le; 475.0<br/>gini = 0.495<br/>samples = 58<br/>value = [26, 32]<br/>class = Clase 1>, fillcolor="#daedfa"] ;
757 -> 758 ;
759 [label=<gini = 0.5<br/>samples = 8<br/>value = [4, 4]<br/>class = Clase 0>, fillcolor="#ffffff"] ;
758 -> 759 ;
760 [label=<Feature 2 &le; 509.0<br/>gini = 0.493<br/>samples = 50<br/>value = [22.0, 28.0]<br/>class = Clase 1>, fillcolor="#d5eaf9"] ;
758 -> 760 ;
761 [label=<Feature 1 &le; -22.5<br/>gini = 0.483<br/>samples = 22<br/>value = [9, 13]<br/>class = Clase 1>, fillcolor="#c2e1f7"] ;
760 -> 761 ;
